-0.0020933173491519737,-0.0033799509148490785,0.016776896088126984,-0.008105872438941618,0.0067396689551348175,-0.0010254143471932293,-0.0020671031750856403,0.01576322415057882,-0.00395767131229681,-0.005720633008387559,0.006146850423719145,-0.020439318548915404,0.017491917778038945,0.001760483532229779,0.001505425569563871,0.0019856108491238442,0.003335949534569762,-0.0018082231112794558,0.003076469154014565,0.0037473581521978655,0.0029794991657383324,0.00012555556282586064,-0.00596539520763082,-0.017568311210921977,-0.018025282894202445,-0.009581106345503685,-0.0070751137173025195,-0.004717854366000487,0.0049425761145981875,-0.010289633292881803,-0.005232578313742651,0.0024104201566696104,0.0028111107612265067,0.004155418291264137,-0.021570035460987888,-0.002676935334650098,0.003246396041586326,-0.005493670282740069,-0.003093954605460429,0.0059002635327158135,0.00024358041114876135,-0.010189187891060558,-0.02157230292295071,0.011488329841346016,0.016815837077316917,0.003648423606230851,0.010894982401278654,0.0031486193033052248,-0.007264989649554841,-0.005934503025984486,-0.0051804247836385745,-0.001992230025298866,-0.005352570098464103,0.02064299605268352,0.014086302441018033,-0.008009776220693366,-0.01286195236710345,-0.0003837182843415515,0.0057585887243584745,0.0010578437991860237,-0.0006396048621570464,-0.01805034481806876,-0.009393605490634787,-0.010674518197289153,-0.006272480820498446,-0.009172292261938716,-0.018006111567429876,-0.008544095109100851,-0.012766851454187274,-0.013318467826796191,-0.009367668602230253,-0.023878149559502595,-0.023127565430726815,-0.01290687162489764,-0.028780494634002902,-0.01342707176511115,-0.023163093843153102,0.0014518958637522695,-0.0007613041074407446,0.006547100635525776,0.013018147557314251,0.01282845656574787,0.0056208790909145325,-0.0028181724549272242,-0.002482984843534568,-0.0012324179834388037,-0.0029808941594994367,-0.003814303092431835,0.020444560573970795,0.002452976413494532,-0.019773746298171368,-0.0004049106216551259,-0.008788211886825712,-0.02304204988581591,-0.03662336266876288,-0.0211250267794458,-0.024936915928840148,-0.03828836026084772,-0.04495554596124754,-0.050791596007905455,-0.04980942824280401,-0.025543424300675188,-0.04729147036493223,-0.03936421399483611,-0.056588285884267286,-0.030204810976900528,-0.02399778256517803,-0.019043375384444724,-0.002489520655767473,-0.0034971703922139423,-0.011071581202064595,0.02137123549608899,0.011137154660504783,0.01584642739023809,-0.015084370842131324,-0.009497569074854781,-0.014843721099290625,0.012143041042727449,0.01959860837385763,-0.011389655602353633,-0.01687957330268285,-0.01993689915435046,-0.0409194097045774,-0.021475723403915844,-0.016036653217931924,0.0037822737251278133,-0.013621142817705637,0.014290297269696113,0.0035511297890365424,-0.015426743936727038,-0.03579350586683455,-0.039150227865574504,-0.038203508038677406,-0.051688193142877426,-0.029158101013491984,-0.013702196342498571,-0.004740412049088153,-0.00305783697478711,-0.005063459416070219,0.005676772307107487,0.013196104498235026,-0.0007747891797664694,-0.007198156419186329,-0.016295816353911013,0.00993463107218378,-0.02719784222027732,-0.019353371840146762,-0.03326939804840425,-0.034156340869878364,-0.038583589576700876,-0.04054751249021716,0.012904173284964383,0.011341515195965978,0.05600619059446167,0.09778836572094475,0.11099348672763394,0.09629958050832045,0.099768243876384,0.05096875144000409,0.04624830415193271,-0.003528085605547832,-0.019191108294170228,-0.024099527834417593,-0.0527430421069711,-0.012101368101748214,-0.018019972752794787,-0.016111226680585553,0.011188326286475266,0.005309116199321867,-0.006376273280805264,-0.005729868018024756,0.002613416155865161,0.007089564404613719,-0.005685298495650705,-0.04020055160597127,-0.0456521847224619,-0.0686749228623158,-0.05015017281688408,-0.02002306078349914,0.00844484732336341,0.02559148685553183,0.0813826964691616,0.08049848737497244,0.09617639003263269,0.14952602528017434,0.14136242328322216,0.12237274238616315,0.06377601982897413,0.039738047657282304,0.02572065844091069,0.009876888231789949,-0.010560843457358103,-0.015767208891289776,-0.016510896449893026,-0.00985647718199036,0.0011095313591617472,0.0012562786090341896,-0.010475721778810695,-0.004367399083329017,-0.016553094047498215,-0.01214018987517337,-0.031932882079200725,-0.031223495583251253,-0.048168125653432335,-0.060194632478809774,-0.044571217092813586,-0.023735190556809362,0.008220304061421334,0.03257226746151533,0.05138762954467973,0.07374508895109991,0.0863586475112729,0.1607961541454751,0.16971088859629743,0.15065373732114587,0.10568125529363456,0.05684746920949294,0.036284176623371474,0.0391712599013655,0.011711960189220027,-0.04710353414476134,-0.024344140727782283,-0.0029250086531145414,0.0023894144505856828,-0.008245461430772132,-0.0007034084094831114,0.006186914153756394,-0.013885773093621446,-0.03034225488422313,-0.013964478631315301,-0.04492661621329155,-0.053677099989305255,-0.05866155491342269,-0.039057006145727824,0.003962093356149664,0.021660281088056683,0.022760128886011918,0.051510651872022695,0.076706190378065,0.09062209473333661,0.13498074486011835,0.13603285438127308,0.15640752851795128,0.09911641561940253,0.06143139129717258,0.05501840064541513,0.08338923031743516,0.018971046085990942,-0.029031315645667563,-0.03293901329356314,-0.010304069850246634,0.004807459895086099,0.02298937514618378,-0.013328928341105438,0.02060932438183093,-0.008294237671706055,-0.01036825740207781,-0.05626155783863475,-0.04194233570958992,-0.04790823591030909,-0.031105602446931488,-0.015152657126808682,-0.009131340053759703,0.02456347136870104,0.034068567608898426,0.06554524754035777,0.07834823181367737,0.03879324441135557,0.07623783470012475,0.09731571448634826,0.1449490877047459,0.11033781535423431,0.09627236075665815,0.0669485822504755,0.09876074501493128,0.09061160176599192,0.004194333908111187,-0.039698959837783286,-0.017113894385135723,0.007206550318981263,0.010638084845571707,0.014037089350327214,0.0010251110400723168,-0.016773834731848108,-0.009110814395269047,-0.02608647154819673,-0.006993107636793298,-0.01239780100267936,-0.013197822580159623,-0.0007415938329918594,0.008300937772845934,0.03175131506572568,0.04956145016118282,0.04695739151388977,-0.0015365523955910764,-0.06098694794501525,-0.07125454034999378,0.012949335064723708,0.08750010333047602,0.09504017132423441,0.12449431632739294,0.10257157372089692,0.1464712059471763,0.11520143132932704,0.024735914811338026,-0.012403801372520132,-0.0033811147628914065,0.0031241505866190502,-0.004533939797017159,-0.012893805745526793,0.0011375903686000595,-0.008386938049033088,-0.010512693159096158,-0.038530825357699874,-0.00026653077054268875,0.022487828838871918,0.020660727763928265,-0.018480089502612027,0.030301711476715478,0.05130592310590443,0.042049172051849805,-0.011609117445485923,-0.12182507474997185,-0.190218376091871,-0.2037182921983417,-0.13541567951266037,-0.019904243153599815,0.07003041462572136,0.07852342443251382,0.15852057999713803,0.1909185116907928,0.17705659393510884,0.06796726372227081,-0.009204852281081843,-0.005803338382161419,-0.017936498173024864,-0.010801936613452762,-0.0040589440528893735,-0.01663646865913952,-0.005817564546010268,-0.020099078974874278,-0.0183909968214572,0.03535216748679195,0.027908028433383608,0.017952371347374072,0.02169225350709923,0.07547082488322454,0.042580141908115425,0.00843328292372611,-0.11316689180243444,-0.25489068266255904,-0.30022392272343656,-0.3231604154916874,-0.21605840298237677,-0.07656807441821263,0.011297558175577834,0.04730121852122675,0.13257930363338433,0.21759717339981718,0.18069736534750924,0.09417228291755886,0.0041133909145605295,-0.008457660846807703,-0.0037156015826090957,-0.01001420472473916,-0.011622761275177824,0.011289451476426992,-0.016444192466555894,-0.021467247819644028,0.024747303005642336,0.06661903037959742,0.07387883108634731,0.046158875043216654,0.05963219672277388,0.10865447479585211,0.06643589136575062,-0.05434779699529763,-0.20820820678517632,-0.31455379967036445,-0.3651092024689044,-0.3305927736186583,-0.24520734893679053,-0.10885102467196546,-0.03817181237668546,0.025158622533623495,0.1190173937170848,0.18939182470420826,0.213486630659528,0.11286255366093285,0.008987390349196248,-0.004823784809661635,-0.004397885744763082,0.00160178999619393,-0.028380392404530667,0.001461291608472538,-0.021911324872126516,-0.02186613407422671,0.05490556065245167,0.09408915295777877,0.12190344293342409,0.1063692851039911,0.12036768245336621,0.11908442439016224,0.0303468868469044,-0.13304728468291954,-0.25721024483253957,-0.35702275570351516,-0.3721959319061155,-0.3515637354170649,-0.21893772164284192,-0.1115736494723058,-0.018923728165318444,0.03207692139173473,0.09774434397820803,0.1509150452319379,0.1732432587094144,0.07741410581558175,0.004922568152589048,-0.00020904304774292413,-0.0015955272178874132,-0.009212067637787407,0.0010795038425419992,0.009621924230491621,-0.02751348403709775,0.020049120678934454,0.08394094000136078,0.12039148041527653,0.1236969357196049,0.13529821507534087,0.17424491424895056,0.12181887723789463,-0.022689135386208665,-0.20407842365141815,-0.33137462050513533,-0.38783074130845785,-0.36819127665562534,-0.31438552352692267,-0.1696221301643274,-0.059058414592239074,0.005640303022651787,0.05568242163704856,0.07667172979408328,0.12432519117530533,0.1491802711614553,0.0722108638971009,-0.005498110038879248,-0.006206237982770939,0.007173910049151668,-0.00697761908555166,-0.018178173535497787,0.0018900000987443631,0.00330347970409325,0.003409002468225441,0.12002618350308793,0.15812406149812738,0.1531600557504039,0.16417290418189665,0.15984100948820404,0.1147305334299517,-0.060753951557136365,-0.22992872320188035,-0.3249402683572176,-0.3597764877236051,-0.31746796395188764,-0.24607343235337806,-0.09663252035096326,0.008319310196853844,0.028128076586021247,0.062047997264566564,0.0982510714012237,0.10832971663780348,0.09427344492116484,0.03613979604889203,-0.017557495867080893,0.00975806476426304,-0.0036954012236854413,-0.01898944375870607,0.004455994624629246,-0.007142129058440312,-0.011400479869013588,0.0010418891976921268,0.10084194637216268,0.15023381166774888,0.17596535741131575,0.1753259069732685,0.16223377302729097,0.11680542177610091,-0.05569412464162631,-0.19566080562069046,-0.29718387849988115,-0.3250477704947457,-0.24897644833658286,-0.13068023972072199,-0.01751049531681352,0.03017012547766903,0.06414098293537296,0.049849932684732944,0.06096312187559641,0.07979905284876888,0.02912407502369541,0.0034633619570860258,-0.006368408872897772,-0.030983557348826202,-0.012181305370875984,-0.0023686764044117624,0.004841975733171044,-0.006443478597358233,-0.014714342372958766,-0.01537356503399035,0.0781502569578226,0.1073807083545311,0.14036850932114026,0.15082138982225216,0.1598300806343779,0.1320403145379835,-0.011925643841292492,-0.1368492003578082,-0.22468328384766,-0.21117216140372674,-0.1548710573415663,-0.05789539141551113,-0.0010078829315054228,0.017385128049401028,0.036752880565598015,0.005758120601982356,0.04161937856995156,0.05328634071779867,0.017581175716505196,-0.0001261660630172258,-0.007981025853882976,-0.013066780002502257,0.015460946009590321,0.0083710819183938,-0.0027386459308804765,0.017423437142561435,-0.010590717932797034,-0.01482781762710807,0.06439613444423917,0.08498333729059619,0.1236703726090297,0.13209915147488763,0.16671516148756554,0.17391139465467378,0.05768589136325666,-0.02746901312686411,-0.08764279388103732,-0.08388039505261548,-0.05300317297094077,-0.015035286084233228,0.008785415748765056,0.010491474713288247,0.00016702732755029156,-0.0002693234215129255,0.023317286230108123,0.009465095425050673,-0.012728783190219868,-0.002510811881325926,-0.015526867425019459,0.00047748462751908154,0.006818496051936879,0.01014915340995788,-0.008330843931129386,0.006895885270829163,-0.026932329178781543,-0.01119503540044318,0.03835177534286744,0.07123058733568642,0.08878268958248563,0.09620841237554266,0.11913217047350691,0.1791312777288131,0.12254546767818371,0.04951818996685838,0.02546636981964533,-0.014552767046929673,0.01507048199283826,0.010991810153907792,-0.004328751148352192,-0.0032717233056041377,-0.03717051060334927,-0.011527592133649919,-0.009841447387467955,-0.00803920031704711,-0.017031709388639585,-0.003810104312292105,-0.009038196105411836,0.013848328201268257,-0.0025208777394700606,0.003940463715683841,0.0012384966739009743,0.007722733836553565,-0.021108090320491754,-0.007518504591200039,0.034181527988226795,0.04864858610636599,0.08295827190812323,0.08767765318467878,0.12281681735556167,0.153604035998312,0.16176133880294796,0.09863779576279044,0.05029465017891469,0.053959458644129654,0.038363841244401724,0.022388971212655137,-0.024310321627504433,-0.008012011748344056,-0.04757137019097866,-0.029653424333496235,-0.043999549755771514,-0.02182872267067541,-0.013119945855430578,0.004874024445024093,0.008026001385037219,0.010211601209163675,-0.004991453698259066,-0.011884599249619359,0.01654570484097323,0.00013992233963154203,0.004974943268924429,-0.037347917093200254,0.01604842874199336,0.04771551012039108,0.05160924612201865,0.10276888105064025,0.11852552750348758,0.15598390845174998,0.1848353537989071,0.15666670566265592,0.14015361168044327,0.10233056556943726,0.06300300725593716,0.03490941857928241,0.004521915044555013,-0.031478879465169744,-0.03361487004641695,-0.058301734580257086,-0.03548821030203697,-0.023708624360086267,-0.0014069173198394762,0.002330632302883187,0.020277885918347213,-0.000697377934861076,0.01495703283584328,-0.003238518361165883,-0.010878018542397368,0.0019905077634978694,-0.0037099095284511214,-0.029177513124780743,-0.0068738291465433475,0.00965761571099489,0.025529197227345153,0.06318498545522801,0.08334985682661475,0.11079163296461643,0.13402095296943697,0.17042574862401372,0.13393012353359385,0.0973762653245286,0.062387962831048534,0.00016845186146010273,-0.023751870784525033,-0.060055690821417936,-0.08271756954281198,-0.0511209402009115,-0.031383225172497836,0.0025983002239756948,0.007675349459162469,-0.014061248977095262,0.0030703854841779782,-0.002821770784757311,0.005393829574937433,0.003829632762774249,-0.0017810153154083214,-0.016448947806155554,0.008693014164355783,0.004644974797807349,-0.007615962278158,-0.03686461016297522,-0.03642667578832613,-0.020907443083245623,-0.029003960976906253,-0.0060432154573636975,-0.017211326826817617,-0.013277120314429477,-0.016635009625676104,-0.021295741942232414,-0.038000386318939226,-0.04272771775248772,-0.07081529590622573,-0.056625141976186476,-0.03347294480719633,-0.022731687687705778,0.0017278091465880202,-0.003919554323494265,0.017917258074582172,-0.0007484397297041329,-0.012053004874449562,0.010987443435053168,0.006070665958073368,-0.010862761124133861,-0.0033335929636806763,0.006504444112555954,0.017501961280086773,0.0048631346823836295,-0.005338010179132231,-0.03224835991028048,-0.024726012559137672,-0.026646925128663814,-0.0423708364127876,-0.050365426819620064,-0.06079979151470596,-0.07432467374656893,-0.06026766315931795,-0.06066284979993897,-0.057072058611922404,-0.04750128131145817,-0.024536620143052017,-0.01674086194294631,-0.04988447321458307,-0.0204059211550133,-0.0066160024087930465,-0.0019301917343438908,-0.008527059693696007,0.008716180227561402,-0.0019844642289556535,-0.001948643552417657,0.013210883413917462,0.014861406011946845,0.010587838600272912,0.003150931566348704,0.00558153411788594,0.002556201723728703,0.004657628251852595,-0.028538241674827946,-0.0019710257433556092,-0.004854308967892535,0.0003037661309958263,-0.03324534449289845,-0.006178109524997011,-0.012141267731278178,-0.020508264636050457,-0.024746079210169462,-0.008840869500683605,-0.02234465195350153,-0.016833313084828716,-0.004528457364687987,-0.005703071784949367,0.006198783396905339,0.003935408354873,0.0046459533313524416,0.006321622960279959,0.0013972849378642888,0.016075127893598513,-0.00341235887338669,-0.004531495644739781,0.005774834514366362,0.0005975266313925532,-0.0018162241238451674,-0.0026777371401613278,-0.011256424522052196,-0.012984926126735477,-0.00830525779946731,0.0026290249122246515,-0.007597646936571808,0.01995273651196409,0.008303422556296737,-0.02162640925617366,0.007456142665210613,-0.011858175471849981,-0.013981313881967666,0.007435203584126799,-0.004472534756809229,0.008298947526280522,-0.0042620757525954865,-0.00923556771198691,-0.0013267303007951392,-0.0025098182042035174,0.006860346318721737,-0.025967481242902546,-0.006908006573313308,-0.017993165191180743,-0.013879987039704528,-0.01248057855500094
-0.004597380377736367,0.016409862162634813,0.0011909886818524714,-0.008349176712056424,-0.0035212026416145156,0.014764492258829925,0.008588241526141335,-0.013827081642698406,-0.0004133198204012821,-0.01800191592754985,0.006163494057630996,-0.015794063143045992,0.0007886102508774248,-0.011580955708861782,0.0018306776959063208,-0.005375323031567222,0.005569338826213867,-0.015034406778760017,0.005267957683919629,0.00873481161625126,0.01310043558031557,0.01344375043020539,-0.0041253321427055,0.0020923046828222845,-0.0020784173356686304,0.00696645772257114,0.02329070036866723,0.0043737732193627615,-0.007701189933622842,0.002491625589126382,0.010931992595184561,0.0027999574047542597,-0.007068405559495609,0.007460895372968102,-0.008969546392682926,0.0159525633334966,0.027233836010199523,0.01833799679026034,-0.008158451448137382,0.0007801166471218744,-0.011878919848245451,0.011518425879308795,-0.003986692054848658,0.020896907859684424,-0.01586105037629723,-0.010944686077467632,0.0003055565512219041,0.00458023914575319,0.004522400846336831,-0.01801938433890159,0.014451797216470368,0.018752757971358655,0.012784166597197872,-0.0017921265948799576,-0.015972061936591456,-0.010561825402691434,-0.020235106835915614,-0.0044272775286186205,-0.005585337053388182,0.01221290897738722,-0.0013473193066173962,-0.020147349530460483,-0.004712512368656715,-0.015871162645411985,-0.006984742050263877,0.004655908786986956,-0.005560943162955553,-0.011360120156936238,0.009970492731341997,-0.012958566470675231,-0.013638377811968458,0.011851325808273888,-0.0028952954830775966,0.002989566472646477,-0.02414856350867567,-0.007816877691485678,0.010516888083985572,-0.008226968493680506,-0.012421356119369705,-0.0034911761874423537,-0.0051929795528853455,-0.003075763244793004,0.002428357915568256,0.004929214967543748,-0.00333218150094826,0.009683453468072598,-0.006029298490845612,-0.009239750603141413,0.004100731509649517,0.016912899618068477,0.015427252864103107,-0.019233418037796414,-0.007416859054585567,-0.029630058120753,-0.02301480545455226,-0.026770066382429777,-0.00825237177074438,-0.042993973301273074,0.0025646444128082555,-0.008611611242199767,-0.024818969015921104,-0.036317641429458425,-0.046428477477549794,-0.027374971011775162,-0.024262458669110643,-0.017947878366110545,0.006069590615735724,-0.004055028228705207,-0.0005553300364055002,0.0019183852981164166,-0.0009265183207881435,-0.004670883641417939,-0.0035630708692727894,0.0008050162960595216,0.00430623416007987,-0.0077788239225520354,0.010297894271983597,-0.004355085256495872,0.005514819426631278,-0.01521674088023091,-0.02493398556925677,-0.03584627914720893,-0.030191695738252727,-0.00841446883382539,0.027047660846150037,0.05206525407121053,0.068357820173711,0.0562747140976348,0.022896291302492645,0.012851280484409493,0.01941944160282747,0.07180160359926935,0.090585123889641,0.07160423996193671,0.04107140604439424,0.022620926473764468,0.006964890523675245,0.007533514609133222,-0.013328628783007375,-0.009433312516212902,0.005882162238288761,-0.012538177003102367,0.013244744726133777,-0.0029458599608940517,0.004289304124404905,0.004606723520812146,-0.0002591236598366109,-0.027060093605778542,-0.04517338679277934,-0.05883195789212618,-0.05370470452526125,-0.020308520573659495,0.02121389615559728,0.0869221374924672,0.0795316728373273,0.01998403585989181,-0.00028882270234872887,-0.03500989313572985,0.02844370330262443,0.06142434148985452,0.09424281744907162,0.10112507598397694,0.08919381966746637,0.02694218600668697,0.008937463510848512,-0.0029412778139250102,0.007366388443750409,0.0037937748303044213,-0.0014332715809323028,-0.003712554224023501,-0.014233086650782153,0.004138080834080227,-0.01539878879232661,-0.008723227357041957,-0.031217799228833477,-0.04863147740272447,-0.0897637477893405,-0.1140412536402215,-0.1150430925301297,-0.08822305702371644,-0.04779975766367231,-0.004374758159489956,-0.05022538776497961,-0.07940461022250563,-0.12586235772682933,-0.0962176009931821,-0.018971483418859066,0.04210450018418688,0.078515012520214,0.05416738589875012,0.01862414990045558,0.006788512053491255,0.0031782211395921267,-0.0302649451466749,-0.010712537099479552,0.007030653196781946,0.008100828423817368,-0.010801480506659479,-0.001823709618922887,-0.0077689675356422865,0.0007821220492814262,-0.01979221798456848,-0.03434849751428855,-0.0752713097100437,-0.10156748272463001,-0.15904538104664157,-0.1690805672600413,-0.15100718479309552,-0.11187341659084779,-0.05758245016599001,-0.047604515468267584,-0.1046852132285523,-0.12150688514651915,-0.10095986525936558,-0.05553012987804704,0.004567901917450239,0.0016949558376034514,-0.018378096515009275,-0.0377559188105458,-0.06312456390639988,-0.04562880207717924,-0.011315179171742048,0.0015280539430843761,0.0036149342563391953,-0.012641200503162576,0.003421741914554018,0.0009225528857995892,-0.004375285011035598,-0.011139252214692608,-0.034396074520089796,-0.050834027528143234,-0.06849760290303086,-0.13033658079439073,-0.1458493550619075,-0.17841700488290324,-0.17760794692272816,-0.10849928770683182,-0.03308300714104313,0.01056820412302436,0.004259941034412499,-0.03328898906692246,-0.02874955173538291,-0.013192416692896352,-0.04204594009792646,-0.05526199881575309,-0.08625525966723155,-0.09178390463248133,-0.08338536899991786,-0.08110895228268397,-0.03022239254467098,-0.006180918354917932,-0.008922897482518193,-0.01957846541509952,-0.004674214510610267,-0.0042124887335696646,-0.0073864699406587615,-0.0033272883418911194,-0.013920991495463624,-0.046112563264549544,-0.06518698876502436,-0.1001711171351145,-0.12431232824822405,-0.1799934727060117,-0.15351584423935924,-0.08362335383167696,0.030793269523030246,0.14249273756297093,0.15778094641717133,0.09325270905211405,0.014269240247363788,-0.04303245354421334,-0.09557968676832591,-0.12088346460867526,-0.13933652928313156,-0.12709374036207033,-0.07446023328547129,-0.06800246785479415,-0.0338330747000602,-0.007627877550530077,0.0038978933493750666,0.0028260878058913625,0.005264754413075339,0.00041542129181927536,-0.0003506291481403998,0.019082394849885692,-0.02714812163253271,-0.050722672335967806,-0.08495828053906393,-0.08074812246048996,-0.12999764612772113,-0.13849221647891397,-0.1691374296207696,-0.06590467267642941,0.06829275179913716,0.28377071524399916,0.32635804355820014,0.13038202044849223,-0.003593152994972109,-0.09720864779498586,-0.11482125891610172,-0.14349615111712938,-0.11721704141180476,-0.09224430043034848,-0.06292867579949907,-0.046600970695341914,-0.026462233425880537,-0.014273489300208567,-0.008066074236835474,0.0038535745233020642,0.00860705946272991,0.01361861959737359,0.023704526786768862,-0.013323161480560642,-0.01560149887098897,-0.031188492703463706,-0.050518595229643776,-0.07829851972413555,-0.12400800514345417,-0.17004229482241442,-0.19952572215424963,-0.11086816677659918,0.08773259159208847,0.4010922487059889,0.3937539636560263,0.12160207314171335,-0.055441968484827506,-0.10435814825238375,-0.1378717434011404,-0.13037205268766688,-0.06729638226094366,-0.05606372594886324,-0.03846789906531541,-0.019570367695653734,-0.006934985327763906,-0.008489370507918311,-0.0028937554244478914,0.00434035599434032,0.005344411459062274,0.005387915897629167,-0.012461824364092298,0.010385749966806664,-0.02038136313891207,-0.015961747761024256,-0.03784618785124878,-0.0824253554092222,-0.1300467644673888,-0.1708708735460619,-0.2395226828190515,-0.15152963719520685,0.15442764877016182,0.5036341842488155,0.40083247797276195,0.048535014044723795,-0.08600468299219015,-0.12782058142986616,-0.1234371206761527,-0.09544134240075766,-0.05432451201833082,-0.04151333359624796,-0.018162880580783122,-0.01895257152819142,-0.006042962433176593,0.016721929705937083,-0.0031102576925216186,-0.0021630324427943425,-0.0079226236724509,-0.003578706343413803,-0.001336371305398222,0.0023200938973675614,-0.008109277156972598,-0.023316082573224182,-0.04840835245009186,-0.08009972272291778,-0.14458536911153916,-0.22103925427531892,-0.2704101476311833,-0.18906492723956442,0.23341141136339363,0.5027755880506872,0.33679162407558316,0.002955644198104824,-0.15355646684156798,-0.17136421049693198,-0.11839003163640982,-0.06903242724163657,-0.05725685633980675,-0.03347679505708935,-0.016101959822228347,-0.004677516275148749,-0.004203415760921221,0.0005435297246201075,0.018856279505343194,-0.0077183175499045825,0.0007386281720038047,-0.006699686287917634,0.0013984392640109622,-0.009087233165446606,-0.005700705808880505,-0.027614585999499463,-0.033995028550720834,-0.09313799420313104,-0.15402789606978715,-0.24853975241135023,-0.27034447028844466,-0.11631433203773113,0.28335190601287735,0.46661349254153156,0.2622150093340748,-0.07549888877674564,-0.22234167872764976,-0.1718384079899577,-0.13377781568497601,-0.08247685276206831,-0.062362670620813604,-0.03873195553610092,-0.021132738189103856,-0.004334615796922201,-0.006592965456909439,-0.011901305734670437,0.000747963280815513,0.012739646156823874,-0.010479101515820008,0.004912828307946499,0.006129059930881496,-0.0068868495546118855,-0.02618929556557283,-0.023848836482888786,-0.07462683124263479,-0.09857648681582075,-0.1417390082816795,-0.22428776066738965,-0.17080644948707024,-0.023217554157004845,0.32660571216909035,0.4292588636774198,0.15503010342557075,-0.16483403867431895,-0.2400159232002398,-0.1892939362758154,-0.131042162225421,-0.08734834531607209,-0.07091216225657083,-0.02606726508731173,-0.021255614162011032,-0.010139950928628962,-0.018395609338378777,0.004070074491990302,0.009972241076840119,-0.011328437753005658,-0.017098245503801245,0.008978630541727012,-0.019729213838820016,-0.013699713706520806,-0.025911483704984146,-0.06478445017371114,-0.09830773380873149,-0.11474223085429049,-0.14172677001469844,-0.14245946690908298,-0.08972251578674673,0.06541518461123506,0.3197321621527727,0.3633956176377207,0.046952758462157025,-0.18953058322574465,-0.24265821532751367,-0.20440550085300205,-0.1290921492156106,-0.078937727725839,-0.0699579831674812,-0.045590823731076646,-0.026594064347246624,-0.02506878677210928,-0.005176432932904587,-0.014631973516942103,-0.009159179591438875,0.009919390238643485,0.004599684974263871,-0.0046178854528884025,0.007002267649480323,-0.022357374197540657,-0.0537932458849455,-0.08807113897590677,-0.10134434082314665,-0.10507975599171353,-0.11895430311843422,-0.051282204292676964,-0.00463905530979834,0.12313305882407126,0.2898524192002588,0.270989201393206,-0.013086308577207337,-0.19728528917134838,-0.2041807623181423,-0.17894492450105023,-0.13000617578454218,-0.07750691314017157,-0.06471932038856998,-0.04695488350284009,-0.015568114407979223,-0.007858000055859028,-0.015139252593661532,-0.008218856224136085,-0.0006222534856120679,0.007180232566274816,0.010611565257483831,-0.009792861445281017,0.00031920875665289195,0.004788689220620015,-0.0695675360583451,-0.11883835341258586,-0.1268092215937517,-0.08468327667969942,-0.05524273107998661,0.003536017456626241,0.04267786433999281,0.14855308085306654,0.18150970125621665,0.1635311686655137,-0.03740432997465777,-0.1501873605396127,-0.16959587901486356,-0.1360707740591811,-0.10421017627202303,-0.07600615005993744,-0.06787787519799567,-0.0430615165660873,-0.028261556582753134,-0.01605828551822227,-0.008554879032962157,-0.004413562631284551,0.006261564330375632,0.0019226174837240243,-0.003602914969105239,-0.012231265128659297,-0.005687687434318287,-0.021229251067631336,-0.06270919708029528,-0.1082760319282751,-0.11623635309767076,-0.05637617452199878,-0.012376482251744425,0.013458597622845004,0.06986032276070976,0.06608254225954772,0.11332950073041553,0.07118832896350097,-0.013662833138550486,-0.06645090829688419,-0.08822958099112559,-0.09811993562640382,-0.061517921534326274,-0.07451493468867251,-0.055221106116241536,-0.0436312724902422,-0.02779362061897091,-0.00901349268633354,-0.004367597210320819,-0.0019594853036120174,0.011503292981339218,-0.0013364871057607256,0.021377045858311926,-0.008971071346241213,0.004743482271673585,-0.01065572563586886,-0.06222805053227076,-0.07099621976940437,-0.046181836630362016,-0.003316595016372845,0.021429572090992294,0.03337816920168242,0.032971320375933026,-0.007858700303107334,0.027294557161913615,0.01864523382079215,0.030539345744497095,-0.017720718278831923,-0.025548026972613644,-0.07845012180117301,-0.05366220614239414,-0.052770912371384746,-0.04296695066071839,-0.036502887271999955,-0.014258685660673105,-0.009393094573485078,0.0015700525150366012,-0.006987705176256569,-0.0011353209919712033,0.010469728840323439,-0.015356430137730418,0.00708317339617191,-0.0036339395664672243,0.015544253777500995,-7.83865548175527e-05,-0.0012702891574189576,0.018252928997214965,0.04492057702263296,0.046535886704740556,0.0174837691251351,-0.0641837721741315,-0.0832200540054888,-0.10515315001145048,-0.018055622027406834,0.029127878807302023,0.03021240676748391,0.008557485943261934,-0.01693118548691245,-0.035362768260048694,-0.05043735065676277,-0.021058008716282387,-0.050859361271354965,-0.02120680264307725,0.0061052197806058806,0.007936592943840212,0.01564982650483095,-0.019698275369295585,-0.013973255255973207,0.0006422925806677347,-0.013094535648078484,0.001833096610510741,0.0020888585339490914,0.04278919655675643,0.05415118310979735,0.06614648899073416,0.08093869888302369,0.052837910008814326,-0.01735278254000961,-0.12069885282596904,-0.14923237978703788,-0.1461501131391938,-0.024868127651934396,0.05964592864064312,0.08773919781635192,0.06270516190205692,-0.00826526609383064,0.0027945279928812076,-0.027219720001963255,-0.025093584354138436,-0.018800563142587497,-0.010896623412929836,0.008799693851740058,0.0046841043491822635,0.01624311496530062,0.0015778082479834773,0.014765661081142734,-0.008067368064473198,-0.010884309008053362,-0.0008094295941326713,-0.001767910644775123,0.05222657498695478,0.0722372846901022,0.06899983031164346,0.0760768464022114,0.02222878595655918,-0.05129509048852566,-0.10246022183572907,-0.13446960417090015,-0.12140576701920448,-0.018814038103030423,0.08130236565098965,0.0804244391260205,0.06060328179561118,0.022326713499564825,-0.02859557043917106,0.0028570857900780925,-0.020261580272163966,-0.01852025049432243,0.001070421280540718,0.005666938370896283,0.004879781089482051,-0.0019857692463738355,0.0025435747121379895,-0.012335503366657492,-0.0015458368829324237,-0.00024112442928001342,-0.00677041108897131,0.0037796662839389102,0.0066157070457673155,0.009085618383989042,0.003830009444079857,-0.039676573747093144,-0.049777814763295396,-0.0947267510649486,-0.11703531646806384,-0.14368075531903302,-0.12317512254767618,-0.09855879513458198,-0.0536038982227711,-0.013503910337501205,-0.01905197822658468,-0.01595438339759506,-0.007952774873520458,-0.015832449041963355,0.0010961993241276724,0.004634050386965515,0.0010098242412498227,0.008197415671172062,0.00901799069287571,0.019780158839505887,-0.006114967325493019,0.007231799375235192,0.011564198486989445,-0.0029334329355933664,0.01201638498530912,-0.014484606881559139,-0.007606499010057453,-0.023563608129012655,-0.01628340672926382,-0.02269703757471346,-0.05110598468849793,-0.06455442367760506,-0.06557118640183167,-0.049176120143020356,-0.08222905664681959,-0.07051066111423893,-0.06121574878731123,-0.020046173184334846,-0.031917621245075654,-0.0035729544523973177,0.010776917594068548,0.017438556863419868,-0.00845609540291224,-0.016080414350431796,0.014391990887662619,0.005552866235492583,0.011320145132062441,0.0018265547874502708,-0.01466716892855999,0.015022888535198793,-0.013429484162273875,0.002114272231030579,0.014588936010404792,0.012249844438961793,-0.005245169710849259,-0.012331793598336747,0.005843148574015394,-0.019457584289824952,-0.010646033204030928,-0.022010500846512057,-0.02304293019370433,-0.030915801809123854,-0.02417787892393651,-0.030904277453515133,0.005152437564918123,-0.01196689858894008,-0.008091754209980274,-0.0012254011322340992,0.015238425172580207,-0.01228041318050433,0.0035326503331246694,0.01026466952808317,-0.011616716378393519,0.0010856896447715694,0.0039008815499806276,0.00010719185374276229,-0.009891149761853431,0.006361015283273391,0.001231805394895585,0.0164475307418624,-0.0011227630314512846,0.0014819469966079028,0.005497825023585357,0.0015792530830165679,-0.0005062100553621406,0.0011165554034918803,-0.007009336104401157,-1.727712657960776e-05,-0.011426222742463054,0.007383349205679767,0.009148864410822072,0.0073565256361111855,0.008228769255897495,-0.022023786695356953,-0.004706340099085454,-0.0007379621097528707,0.015641950130066376,-0.002128606589917201,-0.020296414153020175,-0.002046705824976194,0.03171575788886537,-0.004319559148222772,-0.0019675996747183094,-0.006450584237184083,-0.0001363753445302667
-0.006882624214587982,0.0038136793127356468,0.00456977270044018,-0.019448777948320214,0.00665587366526176,0.00731893568218666,0.01403686672595221,-0.005131825886558914,-0.0025095087252947363,-0.014376255083900348,0.0010344389827496461,-0.012804172809134966,0.007563311886455704,0.008577942483922303,-0.0026244919633182685,0.008352888952038208,-0.0101823232120313,-0.01999622155699522,0.007010361645440181,-0.0009350916339053177,-0.006839817768379215,-0.0003374823862504972,-0.004256508335268038,0.018182700412820135,-0.0024517578662852386,-0.0035140877134961007,-0.0067543262854610235,0.00739512943330749,0.0035074751509923895,-0.004165206864477817,0.0006359721174482525,0.004802347752513577,0.012933345674001048,0.006410186481957836,0.004955630815978939,-0.0057286095535245265,0.015131503234167554,-0.003384196532722777,0.003078841902774319,-0.0020147575563226653,-0.003103178146358692,0.021236247615239373,-0.0029640120032567554,0.011070920868862385,-0.005900299356267985,-0.018318903487494795,-0.010287447625160609,-0.004147217949273023,0.0004966287681306047,-0.013944638153553223,-0.010794367347146037,0.020625153589164228,0.005618066109311962,-0.006579377413897339,0.010455434996380606,-0.003058354536961474,0.01333283804968661,-0.013838105944133688,0.004982793112443199,0.025215620077223444,0.007216932080260707,-0.001992591110313068,0.00047250390017446875,0.0074433980928733335,-0.001544180282750672,0.014134809191954154,0.011164339745395092,0.00347067609270931,5.595034136444689e-05,-0.005099155411237842,0.00763745057140774,0.005512493554738405,0.005873595154589324,0.0017919959607170745,-0.03380208149259746,-0.004345627014214241,-0.011655633770655803,-0.006095049226308763,-0.016435533041506138,0.016477381133409,-0.007092993000375473,0.002376653835620553,0.00017746584268042966,-0.013354183948592138,-0.0032815337808173375,0.0007695565597324861,-0.012968211440666665,-0.010437641881400062,-0.005259147567162186,-0.01589283080744315,-0.0049169070027803505,0.016524611284512672,0.013812132202299255,0.05624608594226885,0.06726424669554851,0.07124509038768875,0.09529195265393801,0.09397855612987213,0.06367034027122487,0.056508216902930834,0.023678166526331423,0.012431151631913637,-0.041502524820743264,-0.030514076617696034,-0.026356339466701094,-0.006899274767447372,-0.013252205733413637,-0.0021507581662726758,0.014826236567243162,0.007990625552577759,-0.0039412064968712,0.0019078320959212125,-2.3560791542711e-05,-0.007940321185064003,0.005742510683638693,0.005274229247517358,-0.0018772222237282712,0.017987479680392326,0.02898277183904214,0.04362954017987408,0.07770182783863361,0.10984459789036254,0.15994280259485594,0.18239391947559627,0.2076829330336179,0.1911978572949924,0.1629001967513339,0.16274845702295804,0.13437401976020405,0.08004629603200437,0.03189003133755866,-0.026725697328229138,-0.03185462089255817,-0.057066068876091586,-0.06754379698246216,-0.027703499355694165,-0.019310370083661137,-0.012469425857761184,-0.0017184735312111839,0.002692001036399184,0.006535939319669507,-0.004287997792562921,-0.01889020329177748,-0.008015899612812677,0.0076336560239300445,0.02715065327536834,0.048283529616510314,0.08669839078753845,0.15525124350727407,0.16977026981390933,0.19814355146888765,0.21635327809701663,0.20072467009924203,0.20977827317851339,0.19902191361537924,0.20348271900030632,0.20376720642154114,0.15351046570254404,0.07924563623266001,0.009758406684015866,-0.019525986513617487,-0.0279496712777296,-0.049411993646377356,-0.055715418205899384,-0.009451227816714793,-0.0026251886904189144,-0.0008086212830269388,-0.002180827310255029,0.006740697628659946,-0.015683581016975107,0.009578903745385167,-0.006267159702387785,0.012093471621134406,0.02689889474703097,0.0559910639300322,0.11239644428500706,0.16075566802139088,0.14005404405016536,0.1454863097533512,0.12907235290256816,0.09150899035671228,0.10172822845127742,0.1143766813966663,0.10804647893133361,0.08699232068026226,0.06540613602236152,0.032147871354380436,-0.010306584075107032,-0.03602494444969566,-0.03593983033676426,-0.05160502609228173,-0.05647493537333518,-0.03140541883152403,-0.022304317004498805,0.00047908936202045656,0.0036724166269479666,0.0007280622719063377,-0.015299483746319622,-0.009176106564412359,0.00720345989262518,0.009551660665936828,0.04199728173005289,0.08597015661638718,0.11186300882766831,0.09680988588917995,0.07448870469346161,0.05909696299227427,0.075005036050314,0.052866114475446854,0.06414460376362342,0.06067881201588821,0.02424523499560225,0.023602048569925867,-0.03412014954906755,-0.014634952832187787,-0.020597083594756285,-0.0272571766874508,-0.011966504032702215,-0.020105697596441888,-0.06668796296965203,-0.0523093744629105,-0.02835409359786786,0.005114416494035849,-0.0013171923504785652,-0.015511381110823353,0.005856801843869508,0.005906389220074232,-0.009132659610671712,0.005967567297144789,0.05107149152612697,0.0674963411119255,0.06400015776146374,0.04850784455374939,0.04982710820846069,0.07614925731012422,0.05964855292932062,0.05302624245615336,0.050132264966378424,0.052436503430369964,0.048890022974224616,0.02694498925515054,0.03207952470011569,-0.021041972463899713,-0.012063077589275394,-0.021129608277006485,-0.0218431335963009,-0.04117044217635868,-0.06252114504718125,-0.058151924391810494,-0.008063933920885365,-0.008526545220617819,0.007253960032914733,-0.0006340129199418911,0.009470447552975584,-0.005493754870361477,0.026384702468947717,0.015334473444374717,0.04326929705265813,0.005682684411109389,-0.0010249738390361756,-0.05307844357324383,-0.008138070707861144,0.019426691209368026,-0.01046454593007781,-0.03684336646884633,-0.0275355508893417,0.010218420737124893,0.045980012290503934,0.05166789549698333,0.03680684214635807,0.015173429137352893,-0.003075406510219447,-0.04505436075248947,-0.03382201336227534,-0.03227578727987371,-0.05294912400989634,-0.06150739590935156,-0.01055400149194399,0.00899718954692979,-0.0030782795140117053,-0.00023382541407616748,-0.018754685128083166,0.002275519137612761,0.007051661668933218,-0.007978435811594088,-0.004496923126187915,-0.042653706103907243,-0.10648878893882063,-0.12255150428837629,-0.12029940969613137,-0.14667393717042962,-0.13902084297961326,-0.18103656821517203,-0.19381952779327324,-0.12261838493256494,-0.05554631057834956,-0.014552239522483568,0.033414510427432015,-0.008718089878684462,-0.0026283258550538592,-0.006752369228257063,-0.028356810798212877,-0.04666373703655234,-0.058137520039531564,-0.03809835558614139,-0.021079924194937892,0.0013947202802289758,-0.02040032151805658,-0.006998136084370891,0.007184557482048974,-0.010918448505787784,0.01009612826572881,-0.007750561377544877,-0.04662655869552779,-0.13474657576921462,-0.21826818949049337,-0.2331714463827836,-0.2608823122841018,-0.2655398838974049,-0.3013000186649122,-0.3120457368888965,-0.3251321190878464,-0.2182503116429623,-0.12739138417339457,-0.04051844290434093,-0.04269808177787943,-0.03210834223066512,0.006612979289891328,-0.018179107047403616,-0.03864555006310932,-0.06143067583777243,-0.06335572006217259,-0.018847906985663,-0.0017699159374323168,-0.008184537876805217,-0.007025485525299198,0.002049541810556899,0.00014104948554509,0.006321474823425587,-0.006548440869977831,-0.02550244543340505,-0.10722219929831463,-0.19083634322658158,-0.2741115490361858,-0.2812346694025841,-0.2855656411068723,-0.3119298486673872,-0.3098391321991635,-0.3195433015975123,-0.31175943420309854,-0.24981136207482477,-0.1612594088133658,-0.12813379677681208,-0.10343659953658145,-0.044372039265474186,0.023124521927552252,-0.016805627145869313,-0.0368802185977788,-0.08806678832516601,-0.0948691648145203,-0.01843013408131281,0.027021230061201655,-0.0013618313060805747,0.0021657543847075915,0.004338886131255678,-0.017563268918314463,0.016757602292715435,-0.006579367230532776,-0.04964126548694053,-0.14663253222181127,-0.23621957052351775,-0.2725210150365589,-0.26048624301418577,-0.23738556158276097,-0.20525364080589684,-0.18393470367810266,-0.18351692033667757,-0.12816190546962164,-0.11849042793213829,-0.13440838016000128,-0.11404188919695898,-0.08316392795373981,-0.06999920337758503,-0.013752753298256743,-0.02254151991237849,-0.06306464796510304,-0.0810706667190719,-0.0706395566788232,-0.015147010994450955,0.019498244614966458,0.007114990472740492,-0.0007145041070130521,0.006062802579033684,0.00036796887456542695,-0.004666760215842915,0.002232733829046744,-0.03401112159240893,-0.10365670142087353,-0.1554429478724708,-0.1382958806678622,-0.12284215388532504,-0.10711969354226837,-0.06016751245336485,-0.023640474887167234,0.0074998831261246235,0.026296498498659487,-0.010864077476561186,-0.07049835213117178,-0.05002652242118086,-0.04890024474353332,-0.040542128940574976,-0.05996644042524828,-0.059905628928217665,-0.07039601418165431,-0.08119605455120399,-0.05887003345532572,-0.005266608095049172,0.03347890449550428,0.015936354201184652,-0.009347611834407748,-0.000644261070048843,0.002088686673584183,-0.009174727138722341,0.008225498971412412,0.008966965306563353,-0.06192154985105141,-0.04215722426854107,-0.02942478732604582,0.024958735940832286,0.02619684701241154,0.04545290296577392,0.0727912055102598,0.09968653470788562,0.12943257130634744,0.037195848548423685,0.008594597724706277,-0.008360261589624664,-0.004300814741203369,-0.039487025096162885,-0.02436406202602986,-0.052852624409928696,-0.047637685191409894,-0.03853892023753615,-0.01989552493923409,0.04535788287339176,0.03822927461331805,0.03178513835141584,0.0050395970839354175,-0.01181964665113531,-0.006216608897372888,0.00385408243349232,0.029356996136060423,0.022323890709461825,0.034101616412787375,0.05102358420847065,0.05695927181904061,0.04430317063804451,0.07782974111178846,0.10165030649636815,0.11861804098510066,0.20562932142414778,0.18084883228297596,0.08629263616372584,0.05786465880486023,0.07168164688070301,0.05493007006734705,0.024372458010914623,-0.006726980254712602,-0.007817143544770564,0.037147469980505075,0.04610136771438516,0.07604118607078952,0.09507493096906657,0.09706689697411422,0.020836272607348987,-0.013993624795452816,-0.011406294254169369,0.006477406552602294,-0.006885378896219723,0.024954519186361098,0.0761681216821281,0.12730549947529946,0.1205024378423738,0.11247641468129341,0.07375461407683148,0.10280636955583716,0.1270483262741409,0.1843227656304099,0.21239986736331268,0.16836093004117683,0.07249993496202571,0.09936571501337792,0.0822249343958852,0.05284301352014108,0.031064244593291653,0.04234086433911352,0.04698819751057403,0.09167540332072402,0.09450637268760562,0.1394876852749439,0.1323029907525181,0.09633945425140233,0.03859387123806173,0.023208346387018186,0.005457196461463912,0.007847112833199497,0.002593936085349977,0.023296790829540562,0.09419604570822164,0.15845197414700235,0.17060428355609575,0.1639007575195374,0.11712701588653267,0.1391950782439117,0.17115537594150412,0.20779855328157487,0.2060523490908972,0.1749040477073274,0.09881198307480697,0.06802373095812787,0.0741352726299897,0.062167286703767984,0.04601983076590233,0.03840917154681877,0.06084560927287174,0.10874219316358665,0.16412695286805778,0.19030364354386306,0.18512929978692838,0.07308200234828302,0.00022901886017056915,-0.0015118720203800681,-0.018240399416446024,0.004119765112638266,0.001982489688628692,0.00845908129870299,0.10845725322134549,0.12298774969890225,0.16681612787763064,0.19287388713572223,0.17529216491877103,0.16730139915126774,0.17279291354515686,0.19733112043856063,0.1732730283558019,0.12558701326537292,0.07639348541572998,0.05055911768388613,0.0501486900551148,0.053819955339523336,0.057177503983592184,0.05630895012513205,0.09778695371178613,0.15604100382884312,0.1878088961161837,0.19900786347068278,0.14488280993706526,0.06991020376869397,0.013570429575806477,0.010265997855344945,-0.0023500592116682375,-0.0010074505531344486,0.011309796841288897,0.01651707668442854,0.08807916727200397,0.12583616782928447,0.15060295355811243,0.18814832720486643,0.17321858111553423,0.14602434826699076,0.13984779589645488,0.14052144637353414,0.06155471372715795,0.025703109159914844,-0.01228292769981774,0.013478353953516112,0.0343554427355043,0.03949449024151605,0.10621076974064607,0.11384887892685235,0.11396776676608972,0.18692405396614548,0.18311377725639613,0.17862780006280665,0.09723629095986328,0.03552270228088084,0.031213889978684576,-0.005207848320729228,0.0007580508196881342,-0.0011631536200322375,0.001330402414389067,0.01750381273274071,0.06958750162103967,0.09689530783832312,0.09979730001605605,0.13219136658758476,0.11578132690149477,0.13600747252796433,0.12644004406937517,0.06108842318102439,0.024115852979774876,-0.020996520147511844,-0.048687214827289264,-0.03939495110677673,0.02179642033135427,0.061639828294256974,0.09791794059826892,0.14627922836114463,0.1370967148593365,0.13808350022226734,0.15976485603502258,0.1335065432296101,0.062475215488346954,0.0003796178472814091,0.004106863238592219,0.009312220525377673,0.007470591035962632,-0.02282778125220575,-0.003326134932709257,0.01082480299577121,0.031323624869338124,0.0218592135883213,0.06981749496610262,0.0717151356957829,0.06596431625122648,0.08819921500694144,0.05225587933996187,0.03736604564157223,-0.0068552170571676814,-0.05874645805324754,-0.08608480502447975,-0.06936879092229169,-0.028676016611599252,0.011790424156740266,0.07838468534859319,0.09708352227032203,0.10905041914362716,0.1107916740733837,0.08041257262180264,0.06270352215239261,0.03256288591385676,0.012584544902423828,0.005767162752091792,-0.005607576326833693,0.008972471940239445,0.011081010933543814,0.0037026153461918957,0.0060727349241301125,-0.0011226095176957197,-0.01064952933526813,-0.027910688970261516,-0.05060778214413152,-0.056887790005372973,-0.03376551549177243,-0.07308998953773077,-0.05193108127250597,-0.06846505657033601,-0.12206830872385856,-0.12452698250327705,-0.10807166481790476,-0.07652950171008133,-0.04944004006110253,0.0027953070643422354,0.03692374694876424,0.0333236089211539,0.05035281180585416,0.039842270427395535,0.013049203420508351,0.014851511792183665,-0.012900854242214302,-0.01936866453046981,-0.00869633464172033,-0.0004275714191485835,-0.008351764497529836,-0.0004797224915206516,0.00609307795937872,0.00018338622758753154,-0.0338244907068652,-0.041946542381583414,-0.08531133334819793,-0.07518861802248374,-0.1147092776588696,-0.10134179496821748,-0.11768194746978733,-0.10534919777282642,-0.09577914405790582,-0.0799628466651174,-0.06392351264041755,-0.04182462812884629,-0.047307133481003384,-0.03207811856479063,-0.027249823089859966,-0.03176558226873356,-0.0030627395549491527,0.007400812511983987,-0.00808923951842007,0.018541925744281363,0.005629732568021335,-0.004708221751180407,-0.0008845566557838245,0.00429898163662261,0.02847643994437157,-0.010970099069863709,0.004921596222177632,0.00021499090836958476,-0.028420538381044132,-0.012371113252507046,-0.03761236715997024,-0.06062649807242621,-0.05288136504765144,-0.043720220896193734,-0.031940591965292676,-0.04220789891198354,-0.037394637606096064,-0.03914682633175609,-0.014693069583108391,-0.022672340991893074,-0.019696278596721035,-0.023453527047384664,-0.028731390410040067,-0.017489203600334485,-0.03201924946596164,-0.0055021108513390775,-0.008214367701184468,0.00393215600362714,-0.01848977109759562,0.0014488682921932198,-0.0010308713853380727,-0.006329892987214881,0.014235903112612873,0.008350965397093318,0.02438047088956637,-0.008518018277222494,0.012676794003643894,0.008033294217603168,-5.203253257887531e-05,-0.01807497328975508,-0.017408285646613182,-0.007441149856057026,0.004965903065774812,-0.0010315322309869626,-0.007979128033429993,-0.021713254590977005,-0.020703482047994447,-0.022361137668315028,0.0016817708182267728,-0.0004145951928010253,-0.014383401159556629,-0.007003829963705178,0.012096843345580671,0.014016630855189057,-0.010670855716021985,0.002652902876599777,-0.016326395892365893,-0.004213845189917575,0.016003000682382893,0.004547312897370333,0.0006091053681365944,-0.0009827352036985283,0.0016194779978881985,-0.0005660863149401927,0.0044270089883575205,0.01802952259218665,0.008093342008236254,-0.0062192833981951304,-0.006713549028387089,0.007989891337242034,0.0027390459617136075,0.0034276519708608044,-0.006207848102502436,0.010048729721667485,0.008573393146547002,0.025985800072625156,0.0033227617716654278,-0.013232517933587207,9.228663957509226e-05,-0.004010123151283325,-0.02027731197973101,0.013960833532935884,-0.013763664850380357,0.002607143258760489,-0.009998788671951362,-0.0012105629565389525,0.0065143839169254075
-0.013303655702539535,0.000989395886172077,0.014198897512029095,-0.011196445019004327,0.0035253393616743903,0.008871979720049725,-0.0009637211434322743,-0.004538411390605799,0.012983752365276083,0.00037191781790824887,-0.006548683589587961,-0.01201997694499044,-0.008706904936061913,-0.014409932104905147,0.004340110280037589,0.003229728354379569,0.01658979968287272,-0.012478370103592437,0.012504298993472416,0.0005848121431637294,-0.0077179255755545195,-0.010985628735019895,0.008769811405546252,0.005178804953836375,0.003415981057397195,0.0005733600625996056,0.002629159101287539,-0.0008585412940962973,0.00976519180454047,-0.015291186302267026,-0.012248960969787904,0.007226909754917936,0.00450096799405902,-0.0008093028457591836,-0.005749782607317106,-0.011311802649926934,0.002181822531539205,-0.004322667917049458,-0.002389393079339754,0.014208169100893274,0.006924392617410807,0.01212583194766778,0.0030953921513420784,0.00493719620155958,0.021980964368358846,-0.003735438755439447,-0.0014799153779419887,0.00022562854046208388,0.00961293379894313,0.004106607890238857,0.006939889006787035,0.002943572387083187,-0.0011879320495176886,0.011599132356717296,0.001557701334481518,0.019651533998119648,-0.010185886617366134,-0.003446591543538123,-0.009512724695055107,0.009732106566606509,0.0022820502389248646,0.0035339527839219256,-0.006019196224811066,0.011710208228504293,-0.005103787349525366,0.00912896529443238,0.004529382585936714,-0.007062249220972455,-0.005311231733049364,0.009235130593796175,0.008570251901703073,-0.014336362198935578,-0.00694113663070546,-0.00011448236345292792,-0.00856400008680369,-0.006263815470288129,0.0011908752653391377,-0.022086750340807246,0.002219884624611004,0.028515861821945123,-0.0011410113826131063,-0.011250665861293906,-0.015219569938137936,0.011388171472004677,-0.0017868311385413147,-0.009533606734256673,0.006801771348369075,-0.004549885398386734,0.015357400803466776,-0.0004887469874045708,0.0016989490699297696,-0.005582264615289762,0.014870999208126246,-0.0026682046847074678,0.02160423818504334,0.028738060191390413,0.03181617071501541,0.05049022933198516,0.06599643461292495,0.04282329048926835,0.03795986878561211,0.03033516911744499,0.0022567481194244645,0.014129036948247397,0.0027255124344127577,-0.004586469316014624,-0.0025845867312297524,0.005249129994594003,-0.0072414414545289765,0.004899618022971965,-0.0013230989829273198,0.004912462007285313,0.0003849697319673868,-0.013922319803254916,-0.0059870273649169845,0.0049482785983840346,-0.005372316013530739,0.01080544678443499,0.027899771381905133,0.03663316117139248,0.06373771541218268,0.09116378742423585,0.1110350836594272,0.12416452109442384,0.13109456594595464,0.10936310262389815,0.08482436379768996,0.04826738183290232,0.03065945733798307,0.011672052320468335,-0.005784700324051835,-0.026186572106156845,-0.03024458729882575,-0.04960776460052859,-0.031179165861644407,-0.030682234169458585,0.0047230992583638205,-0.01599783059129619,0.0027086729043922196,-0.0012790495211838597,-0.011725880269458686,-4.1784960771724655e-05,0.011169544780651294,0.002303355044886412,0.03629319473047832,0.04554252505711066,0.07415889616867898,0.11171692053902824,0.1357382952539989,0.14222495605144173,0.14328341126070568,0.14619617915301164,0.11456461778313763,0.06822466151719814,0.033957091037019986,0.059706901434151874,0.03124461900682248,-0.014193486142239427,-0.02329600623151516,-0.02411983407267295,-0.07168451986089558,-0.08965307667818026,-0.09689573932967156,-0.0660589637759253,-0.018404186534124126,0.005500583799820143,-0.008620287649849661,0.005204739171715762,-0.005246552942989209,0.0122473049332256,-0.005631419558448114,-0.002526230101702315,0.04191123462022711,0.09257077201498372,0.13806704686190477,0.135075241565951,0.13725989821929038,0.15564018273810223,0.1374108100945515,0.12343449367839271,0.1027854508405162,0.1177305688296376,0.10915169057784663,0.11732492609770648,0.09277491508871404,0.035964350292349935,0.026949723104432614,0.006017535508581827,0.00909215157934881,-0.027880722122321896,-0.0874889611389424,-0.07824968729310933,-0.07031774589671734,-0.003989597314373688,-0.002855535112156124,-0.006667051651915308,0.014894310888504047,0.009701252778282224,0.0030403359820935076,0.005840596453741829,0.07850408454744731,0.11972535378654565,0.13185024668195794,0.10138438945453905,0.083301601403728,0.05503225166652028,0.0679819150939527,0.0604997248555718,0.05681641149433751,0.1017371888480775,0.1294933016881884,0.1427139252694591,0.08550575197898642,0.08067826852562213,0.055982650878414926,0.07052135014203738,0.054762846291934834,-0.003525315174948739,-0.03225647899314119,-0.07259328857784385,-0.05932830692335239,-0.008266369643858535,0.012963469090107753,0.0016049156879644583,-0.006146368999303952,-0.006354717394312712,0.008473669990565806,0.023731314042762724,0.07590987973783613,0.09772642064963367,0.08770447814905528,0.05344325233201529,0.010591172890402418,-0.01866606325649938,-0.009300640687167959,-0.03508601057186907,-0.035957088501622325,0.007114758904003987,0.07986410055358453,0.1263124666919637,0.10467226351561534,0.10195031037217772,0.06416455060021196,0.10213827575786132,0.11018713212444531,0.07183869164237443,-0.009574898814358284,-0.08324531741533606,-0.05358185870463272,-0.032897274541987195,0.013773523789783054,-0.007982880103524551,0.014769951971565725,0.0072759558854853116,0.0045857720265110235,0.01551194379391252,0.07838402573495509,0.06766235629024454,0.010202157489880456,-0.020349058928734755,-0.09233540421830094,-0.1279012167080284,-0.1629614326433117,-0.23057374373273945,-0.15527198441743756,-0.05301543314393599,0.061782775799913814,0.1730594445515831,0.14653426220717403,0.12059258996550866,0.09308956792990966,0.09529910524465754,0.12172869361790961,0.057654564821185576,-0.0036071434512415664,-0.06767495230585094,-0.033372327644398306,-0.023834373612442075,0.007742136731306939,0.0016683249406603535,-0.006627392965127814,-0.018922683988121847,-0.012020766371158684,0.023764471534848088,0.02444797924497047,-0.0012326931809716359,-0.03834339777254492,-0.13311099421001932,-0.19817903420797467,-0.25616327257719,-0.27264896744985845,-0.28408149074476885,-0.1938075230730431,-0.005677167079028504,0.13142355058367988,0.20465170377752928,0.17964765163872093,0.14402397824892463,0.12872545379899036,0.10311412386228441,0.09026485477889559,0.007740123427378745,-0.03959406675809649,-0.06014451322993272,-0.02272955978391245,0.005973184000370081,0.008072298492303436,-0.01224176495159228,0.001959699791574579,0.008237064763282087,0.006749853858564874,0.002810932108542142,-0.001945057001237747,-0.041957196549256615,-0.11378388335940696,-0.18334706851370153,-0.25800195022495837,-0.2589424374498297,-0.25339877432364705,-0.19613493862588904,-0.07364538296065756,0.0729208423133813,0.1766838702862012,0.18011627501194058,0.1382542653303096,0.13294629561402552,0.10063844360618826,0.06085004026307331,0.02089825660779162,-0.05446761684758731,-0.054845066555951894,-0.049298387445696076,-0.020234020158595146,0.01092970516684486,-0.0037323783715508046,0.016769600985669094,0.009012886419982496,-0.002113151693861867,-0.017694283829926643,-0.01093165959252717,-0.003895540639135094,-0.07539709007994788,-0.13247733596326164,-0.21635277748422313,-0.20798895099042222,-0.18029037821269067,-0.13035694801366218,-0.0682631916565681,0.05454465801310777,0.14608176113425347,0.18148364640588593,0.15799685117050377,0.11339261547678041,0.09038571666924888,0.06929124591855963,-0.01944393976515447,-0.04779850638100768,-0.08058383003105879,-0.06792016673320568,-0.05633067303817045,-0.0108736198076812,-0.012085092636455947,-0.015602909114488688,-0.0026763553292485373,0.008131245951773428,-0.002393584306700877,0.007471389671371601,0.007521201150542581,-0.017598518268825063,-0.06778536580706218,-0.11192618926427225,-0.17610993456977872,-0.16131461273169254,-0.12517732661677364,-0.09369940193201837,-0.019022716233690114,0.10061521764511402,0.14477448255746184,0.1304540584688439,0.07952220889702323,0.07537997412042059,0.06947498501739104,0.04487721665233966,-0.0324116409154237,-0.07789403448171976,-0.06005681991028602,-0.06322828424789456,-0.044652850774184294,-0.0035082274308002506,0.0018096810461121098,-0.00010479006837737732,-0.012546623230018395,0.0006716004013272099,-0.008953218746296133,0.005369930621872434,-0.007355687530933972,-0.011307090341984061,-0.04427834610160739,-0.08572032651380389,-0.13735250961744752,-0.14929055891717835,-0.12522416195831826,-0.08674906417246124,-0.02266854216114081,0.09106728022256921,0.0847179210912339,0.0707301857766135,0.045235655819013953,0.00922471041971144,0.035550066242801937,0.05133579341215646,0.007370352952904148,0.0020256757534686735,-0.017596870323617963,-0.0630490611172241,-0.05657774694946024,-0.03810987642920843,0.00010165801734273904,-0.000942254443760881,-0.0012453397835513291,0.013610197217754288,-0.01623058039437318,-0.007700874785861997,0.015446951592335863,0.014098958200503968,-0.021546152571074017,-0.07813809933685999,-0.09720051725440555,-0.14409210598348968,-0.14780133433524642,-0.1125609392312075,-0.04003394888667721,0.030808612046261816,0.044202044744659955,-0.002553603472070693,-0.013366405552456726,-0.032765722592899345,0.0070244039190438985,0.0555624051331898,0.09264203202861337,0.0916907196664086,0.05463645917092423,0.007075915562889111,-0.02568083260174571,-0.014693009007142427,-0.013888825808670487,-0.0036064477159140377,0.002887752597984238,-0.011372003164214991,0.006454189386783161,0.007424206639861281,0.027316399463701308,0.033942609330950835,-0.0020234816921830072,-0.06000126957296147,-0.09412150897720134,-0.1428239949917354,-0.19535723326497434,-0.19405252773125417,-0.15035451067434924,-0.07381533176287128,-0.08759146039944107,-0.11233122608709634,-0.08601380731560092,-0.04444382230752551,0.02477214233235991,0.10785429906757574,0.11400353895325233,0.11715239043095443,0.09565067060302566,0.053995507598538016,-0.020935690420097203,0.004185544969625932,-0.017111759001811198,-0.008056858045113751,0.010001541082167819,-0.0030774375715312027,0.016389441294074426,0.011850130574517236,0.04414532710245182,0.0742741243175654,0.044345283607989575,-0.027693617475239053,-0.061599931244975425,-0.16104046999247446,-0.2331462816457974,-0.26157902186087684,-0.24815137481178476,-0.23508196340843848,-0.22105451706869572,-0.20786322617240843,-0.13119734499610303,0.004412261773339688,0.08066464619956419,0.0914514493971827,0.13719032228054115,0.11047857847863177,0.13045716188055498,0.0893239604749329,0.020563499588094187,-0.02037854308218261,-0.002703340435391007,0.013711851222264284,0.016630079305846642,0.01739306256849656,-0.007728977813231475,0.014049059718261257,0.0878334960642571,0.11229048360741174,0.0862989572008794,0.03231018863513809,-0.06331135034253124,-0.09341985964602378,-0.18220426230150696,-0.22952556856096384,-0.24973808084716645,-0.2377800138951321,-0.2393729102878169,-0.22346618672148147,-0.07488352628604811,0.08560085004579727,0.12562548697835008,0.14735640675773426,0.15235020054376128,0.1436466715501777,0.14834600333779735,0.07821960371623347,0.006100232175149341,-0.049142836906078846,-0.01828123711006878,-0.00704633735086795,-0.02081150844076239,-0.005723697334199295,0.009516120060921764,0.037724344881989794,0.07699647855787443,0.12800102596181315,0.14609005886036985,0.08960024787610216,0.031138428131093784,-0.030865117767788365,-0.09197257603973222,-0.17644546898707525,-0.19046412075710725,-0.1803385637215205,-0.15310911560499849,-0.10026462509625386,-0.01681943247931722,0.06871113874358815,0.14200277381996973,0.15916580252428086,0.14676115354029365,0.1428249724434291,0.10894860763486375,0.04325837723515874,-0.029874795613616507,-0.02275416281677662,-0.012207346377177297,-0.0015960790015807453,0.013535554877288563,-0.0006988699568231888,0.003820999285659577,0.028811213254712524,0.08468389777836001,0.14907197221606552,0.17975376980791194,0.1282624149464458,0.08833854939436117,0.05410262492908161,0.018882145999691114,-0.053437540745216026,-0.09264811876308111,-0.09944738399829392,-0.07631681468080076,-0.0008616375148954412,0.019404220152725745,0.07826918625527085,0.12612007879260645,0.14011216318252892,0.12299750431293945,0.12326267580805185,0.07583282274271268,-0.008400909159074788,-0.017197132569944564,-0.03240237393394039,-0.019221442639891395,-0.010976953034095644,0.02524953526562359,0.0041952844163964,-0.00670765772034469,0.01839726424482803,0.06778430971983451,0.1073416381011352,0.14772707072204086,0.15840531814316763,0.12477447663027497,0.09247090211204853,0.0364640105811395,0.004491629551839951,-0.056590242312364515,-0.04619484210403088,-0.040171845373218516,-0.0017094893925638963,0.059854171373804096,0.07718466315540314,0.08875842789094418,0.11682083839523882,0.09759575447678089,0.05367775648167547,0.004028746585819012,-0.05267531899292024,-0.027375421288437153,-0.03062355021406197,0.013959972156219105,-0.005746944283878504,-0.0028384730508367773,0.010930014639534044,-0.008804740512238679,0.015503919082219325,0.044061671269239454,0.09296310975035682,0.1189248268263165,0.15699932704574587,0.12329580545519353,0.08282098458020491,0.07815781506113165,0.04718165668518052,0.009446611510839956,0.0029826055957365366,0.011271847952941309,0.018260998538266886,0.04550587421370407,0.05500873222997521,0.06061309180740722,0.03574802491556563,0.033958155982349025,-0.00298768635115536,-0.023466044728088175,-0.04130893938875807,-0.027876465251124388,-0.020622823810049713,-0.004311331537467864,0.009755643120869018,-0.0022817164366064043,0.021576869862533127,-0.014822660954632671,0.0154457035615185,0.015224996396588348,0.05784355879991007,0.10776563265700212,0.12043813077306237,0.11740856654453463,0.12038707694680938,0.10993090750499825,0.09289035848447831,0.05907212369722461,0.036397751726155676,0.05274701525472955,0.017322166972775103,0.022577125186509134,0.01607707362444845,0.015419141764793766,0.026721845511802827,-0.017315352748142495,-0.04862997959235644,-0.04000517725660944,-0.03463496319238663,-0.01423681466119719,-0.0030551544244148874,0.011406763506343464,-0.005686416941681938,0.01609509156919643,-0.009571437648813434,0.0040744431576325,0.004020033518566981,-0.009765295139611363,0.03547115733134725,0.06974349658841227,0.10366749639277689,0.10981322037890144,0.12739932017834538,0.11544022828561454,0.13640592025296608,0.13011646532294607,0.1100919061692952,0.11843771821338303,0.08068730552765727,0.039568491609110294,0.03694585410666786,-0.00981528459863792,-0.043743084542735476,-0.02613312085289684,-0.03906277037772161,-0.01892076624075663,-0.005352081997047529,0.008848686479582469,0.009978527867352044,0.003976831819855704,-0.0014430186292349822,0.004477426190599072,-0.012718432373886406,-0.007639403130633737,0.006853084522706347,0.005610061247577167,0.015919290432563172,0.005532670860836249,0.037819581127024875,0.025065761326187704,0.04584494411209456,0.05671176448188896,0.06558007515740173,0.0879872458754221,0.09730356320155899,0.08302217936186594,0.03547441137328081,0.004851834830124307,-0.0067856903030648705,-0.002219325568076236,0.005829723745964977,0.003209551645376511,-0.00936485194897138,-0.019463722472455217,-0.0040680094777428,-0.0018083933666039824,-0.021052665735682364,-0.0011718499663600046,-0.01113810275018946,-0.014893779042824358,-0.004145782034534431,0.012980694781100175,0.006438798021016572,0.0036554884050186798,-0.008064712985743211,0.006362989974658619,0.01678725270629368,0.016867702040364287,3.5490959658833784e-05,-0.01603278124064374,0.007548236961003716,-0.019371441893729455,-0.01017209499346399,-0.014349476540578282,-0.016695832106625216,-0.017096299967536727,-0.01634527604332504,-0.008387512085151495,0.005655039735304672,-0.003798019584440084,-0.014734400537561589,0.0020914743036877397,-0.007287594841973414,-0.0010719590072251755,0.012190856267728941,-0.0025688012104767358,-0.009230691495321472,0.004062792191179148,-0.009597937206958427,0.022300544991100218,0.00702542609692789,0.004623090240131648,0.02358087732884507,-0.0012139877311225236,0.005569728180300873,0.01718352465859018,0.017730143791095866,-0.006211046490554797,-0.005524331051084247,-0.01659665967412696,-0.001978130516927852,0.0019061855819606577,0.002990555686054746,-0.03134889812839341,0.0009537975907647681,-0.0038200196909565025,-0.0032612901124953343,0.004775770338747515,0.01151193615668592,0.01200419232698593,-0.0071219029824617615,-0.003762379906065571,-0.0009094366810580652,-0.0003199957957371926,-0.004490405664499467,0.0034706541493416065
0.013676416025231041,-0.021519761586985937,0.002496476596067485,0.008336163649237121,-0.004888719646806224,0.012621851041829337,0.0020126950354736224,-0.011709956161164584,-0.007838910581155436,0.0015556815415334543,0.005620825164455032,0.0005986052763328289,0.002178112602630212,0.006395012640574553,-0.005095349296365477,0.0034584682389369697,-0.013505588148252272,0.002524996783926276,0.0007656497000424765,0.011870223557079469,-0.01756931530898514,0.008523185860770834,0.004633573355776674,0.008369969117089615,0.011624694204092009,-0.003346685689860642,-0.008936596791462786,0.007326665870884005,-0.001818540732824109,0.005172306387612506,0.0086913451175246,-0.0154141565746806,0.00535747938646071,0.007206160950958065,0.001199539977196878,-0.01431359682195293,-0.004024808092852294,-0.01158699831224954,-0.013326204333474692,-0.0012178487336844486,0.002014646145002248,-0.01773180387990643,-0.016051647675005682,0.00477783498029704,-0.0004950710812367148,-0.00553862115308933,-0.00532606602314671,-0.0026821955407533783,-0.012189105011357346,-0.0026074791453330214,0.0038679332755982474,-0.008111581316728898,-0.0032710357856082805,-0.011982461702169035,0.003996180705854804,0.010983072849231001,0.013281487383588376,-0.005612854264677771,-0.009233833635459116,0.004462266230391746,-0.0004278758615610699,-0.0004198535551648896,0.006771204131984213,-0.015462235715471596,-0.016021633513205236,-0.004175957166392161,-0.027230883693545014,-0.019005254632415963,-0.03728074727035251,-0.012250051071021678,-0.05906305168909328,-0.02216743814784034,-0.0340776541080246,-0.020534921238561113,-0.03362569876049803,-0.010114549091619985,-0.0035432021185752287,0.0021142175884170775,0.002228153637618167,-0.020174323073852894,-0.003779613783358257,0.007729711476552369,-0.012506440318651958,0.004617593025645819,-0.00026448637639455683,-0.008539861600023789,0.010904848381442981,-0.002967473714194321,0.0011954156437960278,-0.002751193149285657,-0.017468668349956085,-0.01713961500166832,-0.009681500991598601,-0.011443236186541538,-0.046571365588384914,-0.03714111348129117,-0.0736923671604,-0.09024336886586527,-0.09196925365732429,-0.06004208074188562,-0.03561903654958945,-0.04253041715781762,-0.03239933652482269,-0.01916220901818733,-0.012508411088656453,-0.002772846735246866,0.004594358431176982,-0.01630772072355365,-0.008346910007703077,-0.0021028716557870714,0.008285967180397208,0.010074933669987563,0.0022490219851452557,0.004327042363886261,-0.009936643935381361,-0.004435659326351747,0.0066862477344398425,-0.010110949433685618,-0.0052427791547867975,-0.011112745161989231,-0.031651545015878246,-0.03491666753422026,-0.06585400254948603,-0.09178114108691535,-0.10254250376208605,-0.11141237750898289,-0.10195453436635972,-0.10862020564554148,-0.06945870001978557,-0.058058376645335516,-0.054683977044753786,-0.00832067794883025,-0.01053811389839793,0.028216776534913467,0.018189623138537836,0.016966025751831044,-0.010446202706750429,-0.00016696358312536563,-0.008417263757805268,0.01668700740770737,-0.002567621028834825,-0.017867329857508493,-0.0027033587003549467,-0.015378873930773859,-0.0021527460983971868,-0.00981508464795465,0.012040372956523092,0.03102336535858248,-0.0012895259339797804,-0.022186249115019686,-0.035473533910798556,-0.08335326033360493,-0.10517434620215718,-0.12232162437206667,-0.08480243759489561,-0.061250051900974135,-0.019754900933590717,-0.003101395615806266,0.025024962051237845,0.05267729402151832,0.051717578696948076,0.04643659323794813,0.0687200415983196,0.07694310741983887,0.036320647829639265,0.005714501913460293,-0.008710085047744101,0.009595007972260117,-0.018167832295684173,0.0031837542945739694,0.004168972703807868,0.0035167917984984375,-0.003844520755403164,0.019529767907984205,0.004933199313340306,0.0373412750013283,0.02395170832492138,-0.001626136199250577,-0.05737206177832325,-0.10527600730527899,-0.12904282306307754,-0.1855483916156128,-0.21799779017484042,-0.22247145575782018,-0.16495258478672234,-0.11615085550460068,-0.052573604052228724,-0.00993566701283882,0.03572286688292188,0.069148335756925,0.12155828060434529,0.11314558468298741,0.06475138758273186,0.02716435222287781,0.0018277170994679304,-0.003281531821369231,0.008325663358293347,-0.0018412711782789172,-0.02176992844190392,-0.003921469005230164,0.005667440843704564,0.022742093545658166,0.008067118783568304,0.023655008274226407,-0.024330219907615882,-0.028496052649901026,-0.09561183783308447,-0.14426474415867838,-0.1899432482628046,-0.239342612452749,-0.33725666934145415,-0.35782579320063546,-0.2983915498570006,-0.18736994024944362,-0.11329978790907079,-0.07287422676101746,-0.02624042810804694,0.06027683747878107,0.10170358790288132,0.0940196881661038,0.029964038417397584,-0.0050593751101384735,0.005032781445585303,-0.007623800489917948,0.006951455840249414,-0.003511936574473328,0.0003341536235449856,-0.005385981947876932,0.010992378469211557,0.015003509325968062,-0.013881237867214284,-0.01325710017289566,-0.030160284905737043,-0.03697532476242596,-0.08775107749085509,-0.12419922984270755,-0.15491709463570547,-0.21642017375571151,-0.348344168827413,-0.36955575514426664,-0.2674239608251311,-0.13041470430959895,-0.08338266968435502,-0.07833669292782515,-0.029296781988880707,0.006532820712153606,0.030985841440082342,0.0265135924675912,-0.010763934320476388,-0.0024464538993980794,0.015965011895553605,9.121414258444319e-05,0.004588284023591982,-0.006008091029683223,-0.021201639341683846,-0.008400655462393828,-0.00470428573031408,-0.0075688277230109395,-0.041797454803135126,-0.028379992880056343,-0.024632307859413772,-0.04572799511481342,-0.057824384020735364,-0.054514875479380304,-0.05041820051033234,-0.1527003798520222,-0.30940346581854256,-0.284532669319097,-0.12846907770382418,-0.018561460272818166,-0.02554569617550373,-0.032700489132965055,-0.025687299958819965,-0.021299390917027868,-0.015038591619569486,-0.049066731448677306,-0.07380945012660386,-0.019508484493956136,-0.0015298104261910555,-0.0020361692703390745,-0.005358206843263933,-0.003596309886071025,-0.003085546544608771,-0.005817607652249015,-0.005276272218697742,-0.010865723685132394,-0.03347104154411282,-0.02046474573681272,-0.012895825066262528,0.055678742138825656,0.04407460322606866,0.07332099587072312,0.03405942164043,-0.15357236018331596,-0.28324651826128183,-0.18436878912493504,-0.01280322372143579,0.08702788329665857,0.009955232462671996,-0.012893810149998219,-0.04067134562771869,-0.05514889582729132,-0.058973890224420594,-0.06959770316968864,-0.03531718364190205,-0.05534527749770216,-0.015408118320388674,-0.005203941737837691,-0.00781989000941378,0.008169675124626257,-0.0018106501854094237,-0.011042007930693171,-0.019230802201233053,-0.017686348598553843,-0.019056962343420573,0.018481226017032816,0.0731379311605929,0.1292249185406803,0.16523519657218363,0.1923816682286258,0.08575503890937868,-0.12919460621457043,-0.2441744230467563,-0.0690811913248234,0.12283717686164665,0.14088596578886392,0.03253730456475368,-0.019468641057646435,-0.049490767675134974,-0.041794625325865684,-0.07562557217625705,-0.05333373111420629,-0.02825123924143417,-0.019170703418773475,-0.009613717953814169,0.009393377845310264,-0.0010896528505573283,-0.012365187991486781,-0.008636098409364032,0.005766963177104207,-0.034198305886847566,-0.004430605863117407,0.021510393465088228,0.09431153037951423,0.1519582916641931,0.21885358979000627,0.2763614552525299,0.2717137033683844,0.1135704947571721,-0.07994999674038468,-0.16499688471729704,0.009254542147613032,0.17552455558906752,0.17194738165540274,0.07109375974446548,0.007972880642238955,-0.024916068756972866,-0.035754351527765516,-0.037541455738239915,-0.04829682278497347,0.0036505514247052043,-0.014150233558178009,-0.0150256632435633,-0.0031429489519819087,-0.01698369051383218,-0.019714265982503403,-0.01121857533032577,-0.0007453480852286346,-0.0073887418521920295,0.031003063244143644,0.1002452838726417,0.19255520650796584,0.21684826539717006,0.24882040702481037,0.3242471542516292,0.2805672214094577,0.13216414989617656,-0.03553543310227153,-0.06304626801967732,0.03183238568648008,0.20029722814418927,0.23413671741457137,0.1274609668079429,0.07813597223104823,0.06938612995146413,0.0026069823690412835,-0.015247252475998915,-0.03138219678705838,-0.024755475923612845,0.016074495993580625,-0.014969889955506275,-0.005871390549491443,0.007001758235019916,-0.004874740311375044,-0.002859729667086001,0.013467186923247299,0.022261160605622284,0.05981791305738992,0.1640502433114158,0.23424503748821918,0.24996064144161573,0.25496419076725885,0.2737588106134473,0.2674716318379333,0.14754391888838217,-0.013764656061844282,-0.01011962074847065,0.08159721782090053,0.26032197571622595,0.2774762759723024,0.1962409304215379,0.14482372010778058,0.09887095417850837,0.03955715702015321,0.023572581156049308,0.004519948049569514,-0.02849723389857031,0.005127039348075094,-0.012309778248232045,-0.0058861197901208554,0.007478354698817755,-0.006988852745674648,0.0014835261343792425,0.005884230904696287,0.0301255237515197,0.09162865308820813,0.1620205436323457,0.2402541108590489,0.2641628984127976,0.22100160360419085,0.18109011449508589,0.18154700317082828,0.12041758309820871,0.007201138131261286,0.0668052269777502,0.2053352510458142,0.309083569883038,0.27491881623924697,0.1763233889293763,0.1263158685951667,0.07674588360706217,0.029542594075254128,0.027746565465796687,-0.007227373921819659,-0.04108668901093839,-0.003996226510087898,0.00462213179660428,-0.009924045713249797,0.006202900642642785,-0.004708458690364625,0.002720489621763819,0.0018267273268743691,-0.009187171952763709,0.04176733694033208,0.10764413992188031,0.19287257851194667,0.21235011122406924,0.14005320320154604,0.10739691231703517,0.05804398782789998,0.09019626390635022,0.09215467719921379,0.17731248464138408,0.31890747730133556,0.31013595895237345,0.24771178717380074,0.1463939350238581,0.073292223002963,0.025900263280656987,-0.027345582107017753,-0.021423023346851148,-0.038944192697708394,-0.04960934183836362,-0.01202834897346587,-0.0022266785027061026,0.013775756596609318,0.014482924891992639,0.013508515081222227,0.0006758483503367138,-0.028625084125826837,-0.015141326042293634,-0.004475662670748198,0.03014507716234007,0.10344800496650712,0.12472938005356922,0.07096925853674785,0.03253691804735902,0.02294008715059594,0.06295234525848004,0.13801982820834519,0.225549979125274,0.2734125256057668,0.22029595568641838,0.1144568466256621,0.038370468468061,-0.010719160937258079,-0.025970017778674585,-0.0553936111014385,-0.08156765361093363,-0.04180203890201264,-0.05429140170954646,-0.020255040348052547,0.0032357363946169337,0.01425320434473241,-0.01095859626953463,0.008012029967305845,-0.002022973483156488,-0.018966150003630767,-0.0499803000099637,-0.05454666647148475,-0.0402336529766418,-0.047892484229027615,-0.018534581130690717,-0.05529575682376271,-0.107119681590913,-0.07886985355828988,0.003081515003096022,0.07319864089656933,0.1463315847346923,0.1428351285223902,0.07987854776824223,-0.013055428829982547,-0.044221815503233966,-0.07203116032766935,-0.09068033852656784,-0.08920114614850345,-0.09138847853442986,-0.04930496613705661,-0.02692850093574954,-0.008501189198581659,0.026240161438418164,-0.01671883142244689,-0.011662656049559626,0.01652665488651061,-0.0034129907766829734,-0.016655174135264718,-0.05249236078996588,-0.07137605934341379,-0.08956923003060632,-0.16148521089850934,-0.17329199459759004,-0.21471285044570587,-0.2050415422988739,-0.1812376028902951,-0.11935133589904467,-0.03931642684372209,0.0016232494490070655,0.012335366217965169,-0.02667597834097263,-0.055920359620947754,-0.09638357465971341,-0.1047481185515392,-0.09330543042189399,-0.07886814572959351,-0.0823892965052778,-0.054944867040069297,-0.018622695060092193,-0.004336216267127952,-0.014550788682283338,-0.015858105308540378,0.026703390501434884,0.013629528796381636,0.011454781816412275,-0.014237270912231679,-0.016276704503580493,-0.07407948435148072,-0.1202799228244295,-0.1828595577914336,-0.2164981881560741,-0.24170951495897036,-0.24274440931893174,-0.19513048136276154,-0.14639771245208602,-0.11567350243152945,-0.05544448066563195,-0.06026927815369607,-0.04325507220460996,-0.06445552455026568,-0.06064133547690313,-0.0618443766673843,-0.05886595283909109,-0.06545965291189394,-0.047614122479151,-0.03973110113697385,-0.01713834788592417,-0.010951039487005789,0.004689319708066915,0.01655207141980197,0.00694603135908601,0.016962458424216197,0.011340631914464421,-0.009423854615322498,-0.015682896551354342,-0.05489274651999793,-0.1113016859462344,-0.15223398321934178,-0.18803541439255383,-0.19126428734140105,-0.19640332758136197,-0.1571506654832536,-0.11121124968259376,-0.09785575040889753,-0.09220931398987718,-0.05418790313443967,-0.058803048750539114,-0.026691016149848843,-0.03206399298846725,-0.006975583711743114,-0.01063210952491014,-0.028044295197593837,-0.018719837897781925,-0.002164159133094462,-0.029042823335706784,-0.010361336455659263,0.00018596392262776456,0.007009544020209462,0.010379687882727884,-0.011926379725131697,-0.005794389458261951,-0.006028643727762755,-0.009972176015741031,-0.024182891853059996,-0.055643145125342824,-0.10471656076176207,-0.12743198702373862,-0.12237748398847705,-0.11056573574333653,-0.08726769406665505,-0.09399043393602502,-0.08034641459463139,-0.08230209559930689,-0.03053032062722859,0.0003610635923558413,0.02130611920612832,0.03531447188865,0.0546266745939517,0.021545061126100017,0.013710973996225794,0.010259495476329603,0.011277575412659944,-0.005325759731176453,-0.004744601157627327,-0.0001727445044837579,-0.001105162191358065,0.00043893754125113086,-0.005802587266821692,0.00489648840069956,0.002530284577937312,-0.007633352974423581,-0.025248299705526635,-0.035139750349319376,-0.04898995484155285,-0.05973602500569893,-0.08439019221809377,-0.056849665547616224,-0.03674785121185434,-0.06319787539714239,-0.08621151986203218,-0.05079711228319772,-0.0002828203648911032,0.015314619833072127,0.052090102057775464,0.09390174466014237,0.07595731816824967,0.050302019126762666,0.020417131125109313,0.011713788978680478,-0.0030154695744994057,-0.009571408166058799,-0.0017344391887367788,-0.01431576149945055,-0.012631987062894284,-0.004314125024329206,0.008628627490524768,-0.007243887251782059,0.005273258958351065,-0.01109181958807888,-0.022141436273190786,-0.01464109591241313,-0.04656331165439338,-0.04374592142092901,-0.05071748481964331,-0.03517782998595058,-0.02168991329912228,-0.05454637478332725,-0.060969352519939776,-0.049869312224712185,-0.04537074121070098,-0.01167219345092091,-0.009763595756708297,0.014769077215436684,0.021903435333869473,0.0005635480741342873,-0.009870151525120495,-0.009933145216081248,0.00880088692158212,-0.00359152134689752,0.009828622321366914,0.008404153940152119,-0.01822217885016449,-0.00977387499679825,-0.014526110453571562,-0.00885674493670474,-0.005544516978861997,0.011074977189505732,-0.0014320595999869647,-0.012921331664354168,-0.030413311553311985,-0.046908248991395236,-0.05325477795562503,-0.0753195488147186,-0.10673112499402847,-0.11431350187811909,-0.10728238797108032,-0.11534451316430114,-0.09779416795132623,-0.10498441185683922,-0.11014720396182712,-0.06785702718577036,-0.05163234225679567,-0.037359354875632016,-0.0068820305584994905,-0.007176017384458285,-0.004050578313065809,0.003120684037064814,0.009080913689898997,0.00851410658229544,0.010598671778681162,-0.017842199044217612,0.008080945017853872,0.0009840196320604392,0.002853477621138507,0.004523427699979637,-0.012934655001183628,0.0031076723446454148,0.003996792260126895,-0.02125325812487758,-0.03869531040053713,-0.05995329267866941,-0.0693472674242526,-0.06411769409613403,-0.06670498917519183,-0.06272223329852356,-0.05511319560436553,-0.06138568080506455,-0.06288903690275859,-0.029946207527678223,-0.02223648507614707,-0.02239914445830186,-0.013835500739920958,0.0042053441278276866,0.017505490685733715,0.011531076464201161,-0.0010719012009576508,0.009821621003459445,0.013972832596772471,-0.0016003338850306915,0.011157466265897498,-0.003977615443916234,0.033812390889245134,0.007902792124833951,-0.004573803689405478,0.019334738093738403,-0.012862580882803754,-0.007088141567648755,-0.017658909649446577,0.002454180337083595,-0.007690499438109677,-0.012577777889953085,0.010651053232893254,-0.01898590809021612,-0.010198390644275586,-0.007584137871611074,0.006448338244541616,-0.011369142971308912,-0.0062028106245499105,-0.005258193413150123,0.009048808570184924,-0.023943272960495816,-0.006457866430053952,0.005817301567060641,0.0011012688246390646,0.013885426538981954,0.0035894943542298316
0.00269434777578182,-0.005987234391218719,0.005019422842237683,-0.0012840984387365798,0.009076864828612106,-0.0052170073082380185,-0.0009035294220705389,0.0029122591559568012,0.003845440457575158,-0.009471552975069108,-0.001205257450338569,0.006386742066691033,-0.006429796724467854,0.0015468941312771927,0.00646432030644737,-0.0025745514242402918,0.017649846353573515,-0.010628259893260413,-0.013141884151309178,-0.010449897538806366,-0.002744696202685488,-0.004849142949847427,0.0007519679161398872,-0.010052844588140366,0.011109888134540167,0.009870199788655611,-0.0020031863356591746,-0.0044189569531939725,0.01616662025088602,-0.003937489034208464,-0.006062285576057821,0.008537169936841666,-0.012057381984389545,0.012176464396772602,0.004124043243737711,0.00038410923902969577,0.01338209695785006,0.01769647506589703,0.008860523144731094,0.010509865439057273,0.0073136292977622345,-0.013486771681924097,0.0065962493504722625,-0.0019467209730252412,-0.00944679424856537,0.01462705545918216,0.006856267736468188,-0.002317061405574967,-0.019111024294192838,-0.00037915949947254325,0.0003141363678384508,0.011393509302922825,-0.0073142630388063935,-0.01026081198951634,0.007233292556352117,0.005571612676617705,-0.010479141339737411,0.009745254243929162,0.006122720163759862,0.0055043671991812015,0.0033298394447645718,0.003435270001486066,-0.0019328021897879251,0.0022963930959651545,-0.007527693068518617,-0.00100794605437735,-0.011087959425666281,0.004036937833530971,-0.01188745573564591,-0.010725388982822765,-0.022655412487880992,-0.0093030038739246,-0.020715781505382176,-0.004637234138607843,0.002420926577738406,-0.007950536655003301,-0.025759731848989498,0.006190003534235151,0.0033030771842528467,-0.01710210163758909,0.0017576877653437718,-0.014453527511420981,0.0036950842052088048,-0.008560585619374863,0.013744739808104117,-0.005479642209100862,-0.004459921033099362,-0.0014782306053739583,0.00733229657453343,0.01254413168737195,0.008434691429686664,-0.005448210743823602,-0.0073752176581861105,-0.01724018811836836,-0.002622772209289316,-0.035686679918714624,-0.030115798627239607,-0.02908144169391159,-0.027949730802011765,0.007105247128609937,-0.006115432529436311,-0.021210258742427383,0.0005952697494811307,0.00739216546759149,0.005793255458733982,0.0069883323275987085,-0.017067092544773902,0.0069201537669100885,0.0034696047297900624,-0.007581143149718316,0.0018818335655964827,-0.006716770653003118,0.002106878916770174,0.0018132355421002408,0.021440904641499437,0.011088761505472073,-0.0005331463618591533,-0.02391097179171694,0.0028917671342951244,-0.017327362191733985,-0.05055837137014177,-0.04428123023862884,-0.04130874096878867,-0.06961967965828493,-0.06582993083464216,-0.07755867828107578,-0.05151446463814986,-0.03416931836641713,0.013157997703203639,0.0153356369090557,0.017820429851486835,-0.0001418256051575702,0.010044472323442428,0.0175213706203775,0.03055901783788014,0.05377023656530444,0.015626329876275182,0.0038664345126499947,-0.0049075398307735505,0.0037753036628360875,-0.012795154147289054,-0.008887561702367725,0.007579516910319403,-0.012402148727153882,-0.029958741140895265,-0.03229878651953221,-0.03653189158471323,-0.03542479789201395,-0.05170767774238674,-0.02364404788700435,-0.015892341442811785,-0.023394075691942195,-0.034281744657601865,-0.04139712714166077,-0.053223476289904786,-0.03545000806333114,0.007075435752554986,0.034018786959479456,0.04951542765929987,0.042785325249362856,0.08942179959461144,0.08049761781993289,0.12094863231871791,0.12734253708853363,0.0710831550064543,0.03786177819132996,0.015479211187109885,0.012083555621050889,0.006566472692481855,-0.009005271579017687,-0.01325080075880997,-0.0028419588217443855,-0.025406650510313423,-0.04320938991812889,-0.05087759326410124,-0.045994937209379895,-0.017532422123439296,0.01561076102483931,0.05024562061453141,0.05456001536457506,0.03497248015154163,0.022248148907389475,0.031827535235170165,-0.0008263254176881904,0.003020530910228859,0.01885781970377858,0.04379609753839607,0.08899851967928732,0.09633883200289806,0.11509853091917892,0.18520775911502538,0.19315394316215073,0.19466399269347184,0.07963145781845742,0.023977840799789377,0.004727967854337156,0.004024133943363836,-0.006197489286934103,-0.005733913384428675,-0.007077146829355512,-0.0479653566638432,-0.06622581283640419,-0.06437647636865058,-0.0399127354964319,0.0212531860887664,0.06362984671820728,0.09113367439839605,0.10015397101871677,0.05261737237426148,0.025959103578030704,-0.017968146363840178,-0.06745647038316886,-0.05025250984055135,-0.0022132886894581667,0.019688622418191085,0.07649694803240807,0.08508568851981091,0.1496267512446874,0.19199077855664007,0.2733590706343578,0.29246426875558307,0.17010783160080128,0.03554392935778644,-0.0035752911881134107,-0.011095660681503588,-0.020535929785104025,-0.00041283819733998686,-0.015171232360486628,-0.056304715387739124,-0.07360817003429973,-0.06382921551617361,-0.008679634213675172,0.051217779093623794,0.06709410776868258,0.06761084213438559,0.09442466217434001,0.034564702491072775,-0.0008544209475820324,-0.06694457977157448,-0.12719461173520766,-0.09453720577762138,-0.07642177933502316,-0.024622887514129492,0.016609525048993934,0.055287353170840346,0.14220361430368147,0.1992557871567249,0.30550136957526436,0.3535995277270205,0.19760550770311458,0.04079389278786892,-0.017490884627128844,-0.013852947161714086,-0.005562219482550445,-0.008613559598542592,-0.02883948932551652,-0.041055045456978835,-0.06409067161328494,-0.0301943152885836,0.02268582217094496,0.11512625186729757,0.09929798851763545,0.13365085662183268,0.15509021869113232,0.10472653087673904,0.01701335947315504,-0.0633203216356068,-0.10826025198353449,-0.1392164440579192,-0.11734846805328883,-0.08293303302308806,-0.0307445289239124,0.023313828923352316,0.12222792547110604,0.1913369477902099,0.24819074450436623,0.3174294982300264,0.2100118101603798,0.028151065417964725,0.0044288180523991815,-0.00035112411305174523,0.021204505498895746,-0.00022349517665580447,-0.01700512480927696,-0.03432319780867545,-0.027735322694995828,0.029858470798861864,0.07183891264680001,0.13129012606083393,0.15040205750104743,0.18964715248450495,0.21344315546445983,0.18798026586223837,0.1448494907704235,0.03549445361051889,-0.062235902104333225,-0.11305562610940573,-0.1690008799031613,-0.15898509539366107,-0.15484238079246104,-0.09598538920260533,-0.04910769964262414,0.012123768114390504,0.09494605622911227,0.18102676197363277,0.12038450462840644,0.04522927388135002,0.007786945607974404,0.007988679613312885,0.0045575643385023755,-0.0037486295085536205,-0.012877719149250783,-0.007325554921838315,-0.011693707017283075,0.04662631073777979,0.057103811331453806,0.13798768554963445,0.1488365467290478,0.1511063408068021,0.2586544911145802,0.25417049981763346,0.22107814676982362,0.07601942684407301,-0.039662378108786756,-0.13515414499919695,-0.2281089669648373,-0.24804864561927828,-0.2536576446870236,-0.2719447760188618,-0.23732984989398853,-0.19008077128304923,-0.09519463780309231,0.0036770345123726613,0.051040526925544755,0.011177107972665338,-0.007580556594206883,0.00971376480860865,-0.01144281831543815,0.0038049324576839897,0.008891988987868766,0.01840973255930991,0.020690091678229786,0.04082234053326146,0.10474709869051296,0.12277340526346006,0.1149544106863237,0.22390147312164094,0.3068279355243062,0.3038389136346825,0.22243197003134677,0.040820739280423415,-0.07880805649009172,-0.16677256195465512,-0.20828868850345242,-0.22287094128356202,-0.23638766652465454,-0.2500829506465439,-0.24534728689020116,-0.19878266515470436,-0.17226332277056816,-0.09789257664104593,-0.006200725410437913,0.010157618794346726,0.017887759458441486,-0.0032242208849994456,0.0015033786191989559,0.008420433180976695,0.00841185252482937,0.004667941206752629,0.027956685489662042,0.022556697496849812,0.05909307364574409,0.12032528763556627,0.1425063843584681,0.2224927125058021,0.2806647917819257,0.2614655965207942,0.1572550533055652,0.020979487939006485,-0.14050140790635113,-0.205340364492314,-0.15730957508681534,-0.11581395373618023,-0.10953848948707784,-0.12426929638999197,-0.1634216262303687,-0.15363726003399628,-0.12476884175530215,-0.053325570564508866,-0.005449586041825855,0.012035228638566467,0.002391724083092417,0.004984753455807799,-0.015617454043191203,0.006324134612076681,-0.005458131109906945,0.01052547282887572,-0.025868983050304422,-0.01034641375081222,0.01345156246326313,0.05692078037440318,0.15117716397323774,0.21259570765614144,0.19343690516237194,0.18490240066638203,0.0590422661670306,-0.06938343334925143,-0.162022609253922,-0.15579883050888726,-0.13742692671186285,-0.09871740598184936,-0.07101113125717667,-0.028527000044576853,-0.07350088905303094,-0.09263672562054807,-0.08756207328342043,-0.04751123154826295,0.008290758406342845,-0.011770179995718921,-0.005658770796585589,0.001303241906073915,-0.013474436964051905,0.0153934643205169,-0.0007279215482249252,0.0023321802066125687,-0.038185617273540744,-0.06547037600881894,-0.0899841590793648,-0.0324090993177518,0.039001396621546135,0.06129009475621591,0.07133748060117379,0.039327345796138106,-0.05444998842090403,-0.12472113044099772,-0.17511913995173906,-0.1644732351536883,-0.11819764493861727,-0.027965920063873863,-0.0154703240136844,-0.01581507707722001,-0.04265940527992652,-0.05757804055335947,-0.062119340402195446,-0.00371237651769203,0.0010811516349556838,-0.013125776278338627,0.010965548287135696,0.011494422106152605,0.008862928537147978,-0.0036134222440321064,-0.0036472776154483316,-0.010948948453796731,-0.04931683918304065,-0.07125416553475783,-0.1479798274345594,-0.16652409165508278,-0.14177322558692249,-0.12609567981281694,-0.10282508050997073,-0.08890255370049424,-0.118368823693844,-0.15290893210256518,-0.13344632431751052,-0.136625529502734,-0.07382033951774528,-0.011925401511176546,-0.0018355779007653598,0.010220358854850585,-0.020504926871903643,-0.018906708711641185,0.007121760205619675,-0.011034834582510282,0.012370182909231461,-0.00022836826726178056,0.007010409246112398,0.0011755252670696272,0.00452680725894294,0.0027432299926889356,0.004335707618585156,-0.004286863264167654,0.007165749731428299,0.007237593490679702,-0.07473024117671402,-0.18027107369187093,-0.2124400698345773,-0.23883830966672173,-0.20932850121104318,-0.1995340191076813,-0.15537256340572703,-0.14203907007751543,-0.08925877602568205,-0.04928445044708889,-0.005408502087196786,0.029065901266514763,0.04025925853968601,0.03276872776243224,0.014156480078121054,-0.01082715463157737,0.019738342676992583,0.01776017038658588,-0.017519998678623486,-0.004787180742658499,-0.011037416417367241,-0.004731144471050258,-0.0016349453684491185,-0.004650002505318847,0.005718962400140452,0.008573680115111053,0.0500581442912094,0.1217771485383338,0.06791658987583792,-0.06145575185125883,-0.13278667916510806,-0.18515662541753639,-0.17753164087961834,-0.15287713237201975,-0.067600756096775,-0.026682835604591858,-0.01640828469541143,0.013384120011020505,0.025537736339632307,0.04464098601850721,0.06506504300704152,0.04452071486926572,0.020532052810907437,0.011083906756550611,0.023069023434617465,0.021677470171897185,0.00924642161623241,-0.0034603475021023973,0.00955785349218991,-0.006003545435134892,0.01069097921613013,-0.0036694248127436256,-0.004475454784846284,-0.009549101424712152,0.05669755706661008,0.17449720636269264,0.1660132732777193,0.11631616333655055,0.03644471976157149,-0.01929121376398238,0.006680592859945188,-0.004306794302398293,0.003611169250721885,0.020678985532418228,0.009742430964981638,0.003626741598400654,0.02425608461798718,0.04853846423062131,0.05146448752370928,0.03196314191784195,0.04754075522126866,0.036077271385883423,0.06088074150117609,0.024670337487811406,0.005327422321301753,-0.023771490981760988,-0.015899560110452293,0.01182369329377665,-0.01208321646942909,-0.0005865304757718893,0.017297697556847524,6.073652348121787e-05,0.027308746004578388,0.13173123893383312,0.15511234000544694,0.19351872248830287,0.14585372658317763,0.11752571930175677,0.0983492449491515,0.049740188591756114,0.00839713793441302,-0.025425746997468374,-0.02720539435968192,0.011192290491031437,0.05361118429411556,0.04534281274577116,0.04295224608146534,0.02801746733703283,0.03323631336935459,0.04052977966594272,0.04007275147247697,0.015292964829451998,-0.0059377175637128545,-0.009582379304366732,0.007763201180770103,-0.0095014683698066,0.01715406896319977,-0.0025498440889302944,-0.01141546879594157,-0.00562690185264581,-0.00629887032533331,0.052133447110029756,0.11302375723404648,0.1473210526815204,0.1575012066173024,0.11916493352780679,0.09723944696189114,0.02822648341894803,0.005171560144591307,0.013556437365068383,0.01662517261725689,0.04925399723108481,0.0417037078351256,0.039976813768989115,0.04615694993189256,0.0848225237300538,0.07354013794719837,0.06927541149741026,0.019641100831178815,0.002012236085192971,-0.013234987085803658,-0.019360012429932596,0.004047303055319615,-0.010781935913801484,-0.016306438164353433,-0.001828707252032645,-0.005180174526789789,-0.010975327361508575,-0.014279170309121911,-0.018140895462097625,0.005095841089605251,0.06548828522040755,0.08292177270340906,0.0865854299077946,0.09753361866471448,0.09170227642329791,0.1053134634205375,0.06540244728809803,0.08486278158752641,0.09615423929876044,0.06345531408307561,0.06035149200361724,0.058397021085672414,0.05925317279407625,0.05117419129226471,0.041393023925133346,0.012171881224271514,0.0006947749323989492,-0.012911568541865067,0.009131845322689618,-0.0009166283619508278,0.003947930768566101,0.009181958696010517,-0.008123264808333816,0.0048147105932392275,-0.011664782030580915,-0.01869458910874151,-0.015957752650886496,0.013535375832747042,0.029977894237158947,0.07396466782787649,0.08274658797735002,0.11969593773088866,0.12735020776592867,0.12804511873751726,0.12456361826822607,0.09177890691106276,0.05861977816311495,0.04122177294177322,0.03744407454341385,0.014489137748068728,0.02148692043990585,0.017150465073897128,0.00500543618115788,0.0068232275543562764,-0.003918465187516517,0.002806139969628221,-0.005431605617907612,-0.0023442698377688616,-0.005216768417159755,0.005891651669116339,-0.007530601955650909,-0.003936890243830851,-0.010981714186207843,-0.00020107918645907388,-0.010066655683253375,0.006625212377437762,0.007237990107996157,0.04897449298958329,0.05912508625439886,0.1050824162647202,0.12557201098818888,0.1053054382716691,0.08121774291435829,0.06634724056947396,0.03415980521146132,0.00869062959903849,-0.008775891679619771,-0.0020718001954015256,0.01954730054767498,0.018117118111867826,0.0030988791612195543,0.009698065505837645,-0.01749355309176611,-0.0027458815577089935,0.011593553358079435,-0.0011921636644773128,0.004617365049239692,-0.0080106306851701,0.009825637767371106,0.01648487253890488,-0.010194587421264856,-0.006272783320839729,-0.0032767746076797022,-0.026364382077521363,-0.00469921512688668,-0.00010130909088346045,0.018405630715484966,0.019129483380104985,0.03734119769386851,0.0010019259774723208,0.002715879568941587,-0.002363549560196273,0.0040897068440483115,-0.01567711306419958,-0.007505526550991867,-0.01260938502749545,-0.00951458693630664,0.017897024293368462,0.013945326609276379,-0.0032254806666907397,-0.0023693926296754803,0.009653155907065943,-0.01476433648252212,-0.003779162124098402,0.00031591310417202547,0.00781523456658406,0.011469807825013414,-0.0027014072338067377,-0.0110940510795645,-0.00464839872225819,-0.0034774549789844513,0.00769026359266283,0.004680608494605156,-0.014055496319389415,-0.0048910973892567705,0.0021274553451496652,-0.01900606072749088,-0.018825306526626888,-0.002834801274956815,0.0033388797949932816,-0.013195317112058012,-0.005546230269823164,-0.00864319372763953,-0.00285095768881125,0.011248451205663248,-0.0009516246966864439,0.00535670499419921,-0.010163738225868163,0.0060295196483287,0.009800617324561521,0.009120813259076791,-0.00527181976254894,0.0070146031663187915,-0.0030203994541207167,-0.0037677045520292363,-0.011812552692829966,-0.005044378608501605,0.022106546663028477,0.007550288224314303,0.0008592429228372627,-0.0022566766898243075,0.008102981802443586,0.00498855396477171,-0.004651074425420113,0.016110405146759724,-0.0030392029276878805,0.012786112667782698,0.0016625815933942769,0.00786661415669687,0.0012911226942214802,0.010215656560499506,-0.011249027568723409,-0.0038485110760849836,0.008681469523167505,-0.008249062630841698,-0.018372696135431115,0.011549154650286256,-0.004627991702150511,0.0004449700269800912,-0.014619290308894339
